solver_type L2R_L2LOSS_SVC_DUAL
nr_class 6
label 1 2 3 4 5 6
nr_feature 17600
bias -1
w
-0.01509432684605035 0.00609911000801705 0.0076557418455698 -0.007038025614905323 0.001023866230006057 0.002566367075280357 
-0.01352916676901477 -0.001379020043966045 -0.001175970159870894 0.02196505342532619 -0.0006822887354270165 0.003604229829992693 
-0.006336974081561927 0.00490871598003258 0.006637770899589829 -0.005780590376268624 -0.0007236832147909201 -0.001370698697519325 
-0.01737941133488246 -0.002341852533373556 0.01065276587572332 -0.01071450570816226 0.01204703307832368 0.004902312589541337 
-0.01003730987663874 0.00239814182922657 0.007038338472588857 -0.01426304914597554 -0.0003861216900327731 0.007153674303197365 
-0.004747806815803101 0.0004020125465726165 0.001057802872666752 -0.0006214424534679263 -0.0004691344733437224 0.001608969777417305 
-0.005526515005398569 -0.002283659289371946 0.002481092591842768 -0.001821002340556794 0.001057991220863851 0.001924317906700542 
-0.02866555253130086 -0.01203239688522393 0.01428233128969308 0.01279003954137755 -0.0009777546542186057 -0.004611623417483528 
-0.008635370471278072 0.001268675476886677 0.007146661135254328 -0.007682180705428794 -0.001611272322318385 -0.003938995024102691 
-0.01451558059745997 -0.001816379051583484 0.007198005003455335 0.003541580128601635 -0.008861507746332712 0.01240614623415645 
-0.01099772966600444 0.0072589712928553 0.006162580829097391 -0.009222035201179991 -0.005709253509450352 0.008858595255174314 
-0.01701938163127672 0.0114498689889781 0.008849148952811388 -0.007461037462757129 -0.004172432502847946 0.0007924162249597606 
-0.002049080801537673 -0.006956130035345983 0.01667226475525493 -0.02484144092673459 -0.004897565460451183 0.0007640155226083803 
-0.001608725031289146 -0.0007368935683487159 0.002266919824760256 -0.003209736221131755 -0.0005748338550023859 0.001708735167387577 
-0.002355736747783953 -0.002132403729066054 0.004368528767444349 -0.005068076591781229 -0.002035721518408991 0.004227107063802783 
-0.008236463356843929 -0.01376777662220813 0.01428589758047932 -0.004196317897455237 -0.007418874761101315 0.009467807694735942 
-0.01840797317108864 0.007355797058815243 -0.004050167500560558 -0.004502295292992302 0.005676152461530705 -0.00243340724785931 
-0.01297425798855753 0.03101672148322641 -0.01470154219509237 0.02141430235371412 0.003447609168149706 -0.01268769684127556 
-0.01111584279788082 0.02657772524843813 0.005806047910900883 -0.01770064151692182 -0.003894400306518902 0.0009237176185728935 
-0.0262997439573235 -0.01034162870151951 0.01261011435748616 -0.001249769877957901 0.0120536219403712 0.01103944378629042 
-0.006092816147997133 -0.01328256965452772 0.01506463114396118 -0.01501712112807681 0.001004989284958337 0.004952876447435118 
-0.01143041361682664 -0.01102510947894654 0.01080924151046709 -0.006113899943013399 0.0006084103171359975 0.007181034038607649 
-0.01686383485603851 -0.01188178403069357 0.006540937766016651 -0.003906484529227221 0.00577484477303611 0.009767620909888728 
-0.03366481784459861 -0.02627085360298054 0.02199276080446308 -0.009869828442153637 -0.007292647051963892 0.01114864646549445 
-0.0295454896219251 0.01085945383821841 0.005460013581920079 -0.004942091398459901 -0.008587043160025778 0.01352955820528148 
-0.01656834200144144 0.00211004425732151 0.002142249279453786 -0.0003539149481173969 -0.0106685929364144 0.01974297794365411 
-0.01353090117531189 0.002397089725129652 0.007688244317636533 -0.007893782779472128 -0.00894884740265885 0.01433452675010567 
0.001087114364743649 -0.009734220258492521 0.004489995467417747 0.0135256403495487 -0.01070822372379863 -0.007907235251127603 
-0.004910243140732211 -0.0003060750932383265 0.01251579324129267 -0.0205126923424953 -0.003858416704944724 -0.001468536648290932 
-0.002299233189949691 0.002400383783803191 0.005335853301343996 -0.004988233338530971 -0.003447931030785908 -0.002977925500588649 
0.0005339765441566335 -0.000692025285712706 0.003508793554559533 -0.006793817943325675 -0.001577869573114598 0.0006698046573271949 
-0.01916587739383813 -0.0192646728075121 0.01260242794446012 -0.001072300464184494 0.007919511264124737 0.01388434044178559 
-0.006872593195410046 0.01282618425713086 -0.01869605760111688 -0.00567149742153674 0.01017636456226159 -0.007164392889057685 
-0.005244419682526955 0.01921344409079017 -0.02315409701339877 0.01679006429668456 0.01000933782497153 -0.01752430971743296 
-0.006370233758830017 0.01066346313982362 -0.006263581350659346 0.0007296083633260286 0.0003373617896826085 -0.004144155358980462 
0.01019908779153115 -0.001279997224542393 0.001685518055837538 0.004061504572229134 -0.001706676398104188 -0.0159045198641869 
-0.01000867114857774 -0.002609687947025539 0.01091863296188499 -0.01146320309576439 -0.0003489505970485006 -0.001448539187551909 
-0.008528339314930525 -0.003242528718765882 0.00701167836321168 -0.005746702413571086 -0.001347158634722916 0.004238269272346169 
-0.009680572371965039 0.0003356575430668854 0.000714243563739095 -0.003440304846321143 -0.0004633344868612384 0.007150424538362495 
-0.01047547589255778 -0.005313516533042614 0.01424388985784788 -0.01873112255736924 -0.00176368813928477 -0.009954896172848235 
-0.01386665468540149 0.01620460558281975 0.0001459284096565714 -0.0121428438309515 -0.00809662604555055 0.005437924228339812 
0.006726002451301932 -0.006983755031721733 -0.005162422473894788 0.005078379238017455 -0.01036828892148991 0.01262994733610054 
-0.01237329952629447 0.004549870610701311 -0.01653243549589341 0.01364829406704497 0.004963155157039149 0.006737243350734163 
-0.01831299020028716 0.01199023140804011 -0.0177174368118184 0.02739519631851954 -0.002908563958452848 0.007291687040947349 
-0.01281297952053251 0.004655921314499726 0.01372753887242598 -0.01009601852080511 0.003687829224082717 0.0005100791423905561 
-0.003386619673251292 0.003190028440851847 0.002250341661274659 -0.001225735703517854 0.004095040720260719 -0.002266759762333695 
0.004183060077620929 0.002763145043012176 0.0008992038621021463 -0.003611714122319641 0.001017036056205878 -0.005600158142029269 
-0.008080847006350955 0.0154597592108225 -0.004339983371766654 -0.003554353684848902 0.0006876769277992344 -0.00216846004154686 
-0.0254228710994019 0.03237936220983254 -0.01599982078104793 -0.009631526418149896 -0.01183840618188079 0.008278709592273753 
-0.003411939227816908 0.03125413317557867 -0.01618635543694686 0.0052257211755469 0.003289858929372986 -0.008282590151973938 
-0.01008093636331691 0.0198615019056051 -0.00769947840141008 0.001681249325519321 -0.002247857878596976 0.001010429823822333 
-0.006361775928794995 -0.004634386507127645 -0.006687050847371053 0.0004480555994595963 0.01383009545169302 -0.01014599000585865 
-0.009398782499283777 -0.00664520637331938 -0.004475859187340919 0.01232033367958197 0.01273466861142813 -0.009432345303248669 
-0.00808175438120352 -0.005975729969317486 -0.00150992522054049 0.007057600181160324 0.001697267381075612 -0.0009393561585377066 
-0.006169362284917461 -0.003622665487928232 -0.002768211162860633 0.005671783746889651 -0.0028080140696542 0.00713669089538195 
0.008647178967383483 0.02707210533539267 -0.01375759982718752 -0.01648346899769004 -0.008881833030061374 -0.004185185367901842 
-0.003896092183928744 -0.0009259219230706584 -0.001199835921973152 -0.01022629203070986 -0.01135123278753762 0.01485346701184492 
0.02521421613146796 -0.00181852225528293 -0.006485494520953326 0.007957138265722571 -0.008075746337531522 -0.005595773722423572 
0.0046965125136099 0.009241859603696655 -0.01698985905908875 0.003682222036799973 -0.005923707095550747 0.001190399456296055 
-0.01093768020063487 0.001406218566706556 -0.01972431521600925 0.03107701845101439 0.01014291754788501 -0.003875945094519005 
-0.006496593597523428 0.0007473287192077284 0.006487375809978849 -0.0007141390816153907 -0.006942776789974066 -0.005365390050858311 
-0.004851074547151637 -0.002460741965035276 0.009430281945965326 -0.0005245093938549708 -0.001523203357467625 -0.003039611743251916 
-0.001626963379014957 0.002931178880246451 0.001191315505991658 -0.003634934858271819 -0.0007860724936363053 -0.001400164057009738 
0.01554299674874629 0.0003569655049638977 -0.02835896908606782 0.003157832718703956 0.004244993934911089 -0.008851618708938407 
0.02326647166182731 0.01153738131002283 -0.01749342912856774 -0.01326882469463214 0.001681122895341184 -0.01047444732938217 
-0.00151668216759276 0.02218453742388983 -0.005716085896614429 0.005988403905678529 0.01056039581234188 0.004690294176935159 
0.003430272119616658 0.01211843156231942 0.0002499991822461329 -0.004293180432846743 -0.01109637576389842 0.002980569383010215 
0.0274387532733559 0.003731961327046043 -0.01665715488251285 0.003864029858149742 -0.01041451033923301 -0.007388055864516171 
0.0003892755706476247 -0.008200015761420619 -0.006521380747904711 0.01074816637080049 -0.003243532683889006 -0.00979687296206202 
-0.007572906250053816 -0.000588080832675854 -0.003051305965139455 0.007321401548516002 -0.0001904710152198916 0.002560490613273355 
-0.0024763968742291 -0.01335499094782522 0.004156855043404517 0.01248096901615025 -0.004211058431998094 0.006090732903074796 
0.007011915975699484 0.0137878649478162 -0.01956981405175323 -0.01812480532868733 0.002485791038922 0.01248083122065489 
0.00136137441227574 0.005228349303939811 -0.005119664446097631 -0.02114179854994683 -0.01256511227538007 0.005436288149575907 
-0.01646390567118965 -0.008493926130125834 0.002213905850246299 -0.004907383049427634 0.01550748537940863 0.01918179188007127 
-0.00302329343929811 0.002437655149403696 -0.008009295718597549 -0.005222005867344034 0.009213003855017093 -0.002865432434941491 
-0.01814358237337677 0.002448687366123854 -0.01448138802177245 0.01330522297040626 0.004015791361640118 -0.002721217517640419 
-0.008874571329943806 -0.007433643501536557 0.01759110525248117 -0.004286825478534709 -0.004428314511689637 -0.003580404637270147 
-0.0009503271425790859 -0.002112585532119024 0.007801566787065332 0.001055666227169597 -0.004172686299508741 -0.005124544773171334 
0.005184902278958436 -0.000343334943903813 0.001860342819119739 -0.00363100324460357 -0.001494815140045887 -0.001848910498124135 
0.02332762902795997 0.02046510624680443 -0.03614763973020831 -0.01571319712078809 -0.006613066778827742 -0.02090566688511329 
0.01911396870491423 -0.004718819261945997 -0.005197500434746169 -0.01836591718582643 0.005059287182686539 0.002504343407267244 
-0.009656759948146975 0.02124583695752801 -0.008710898876293735 0.01581184855674711 -0.00288817479448514 0.007302486102817016 
-0.002611414733850423 0.01215769167021728 -0.001315166702131919 0.009707889604822979 -0.01181851429105225 -0.002452428886110969 
-0.004881222001796449 -1.270466256400486e-05 0.0005056744826948359 0.004140064537840639 -0.01123383031809559 -0.007557462560980127 
-0.007461772863706554 0.004347685717985877 -0.003782820030338949 -0.002542091021517652 -0.004964388697132651 -0.014869933585465 
-0.002554849682325615 0.00371405567280044 2.382216254003831e-05 -0.001212970987345996 -0.002784150418462326 -0.00277079963454957 
-0.002022509568070176 -0.0004324802277193024 -0.002432919762521567 0.00181864119152006 -0.002369900714154719 -0.005472290391691722 
0.03505642340470079 0.02770957822962801 -0.0007766371733656727 -0.0480067397664159 -0.02223287446943562 0.002448281836997837 
0.004661006339408248 -0.0003818100956065445 0.004270688866455061 -0.01634775260657195 -0.01800860908491642 0.004887143240792702 
-0.009479388842534825 0.0007531144384537103 0.0008107887076649058 0.008592855491964216 -0.002563030991495032 0.007334011118273087 
-0.006925328604262191 -0.001668725806001488 -0.007464745066943536 0.01115840769865818 -0.006421893556117764 0.006952136589657494 
-0.01081845859185732 4.763201200131457e-05 -0.008891592261063175 0.0002293097217346528 0.01232644867607932 -0.003605604141271188 
-0.01309749758807049 -0.01044411627230414 0.008087501154010135 -0.009014449013786086 -0.001269327010005102 0.01394530897014457 
0.0008376169159399391 0.000603085337925557 0.004056775212920391 -0.001856490474760384 -0.001102501508466738 -0.0004881742620086556 
0.001167808892664597 -0.001030424477851006 0.001112851989139761 -0.004325321375919901 -0.0006751488052015415 0.001107420240685007 
0.008978536550808432 -0.0008668461334402857 -0.02279858302874566 -0.02412710517404913 0.01275173437340447 -0.01065399676925935 
0.01922379088938344 -0.0201789420899062 0.0007770984289403748 -0.005592660768044242 -0.004810222685256067 0.001788717799209299 
-0.03148339974224498 -0.002893250954266582 -0.003112689797395051 0.02543445370271739 -0.01072246130661021 0.02287221314119351 
-0.02043564612096385 -0.01576319531528928 0.01094439024780581 0.009342661736946544 -0.01412916527809152 0.01692918774755535 
-0.03826516037386594 0.0003096483051538021 0.004600360119020317 -0.001887824436717249 -0.01044232574981953 0.01934551053967339 
-0.005216855426471734 -0.008356108353016388 6.13500658100154e-06 -0.005725576403228278 -0.001971648785472366 0.004439377852417736 
-0.0008927972362368979 -0.0007182537857388679 0.0002214126168643096 -0.001433406523494789 -0.001624668744341985 0.0002908220001589609 
-0.001314763811728024 0.005011260739854457 0.002981997010283833 -0.005803667008160603 -0.002115613234194274 0.001598445872026208 
0.01287321456354738 0.006204352722886224 0.01425648176123937 -0.04002402252737789 -0.01752431731954346 -0.004882781166259203 
-0.007145741971799627 -0.02259851696513626 0.009417541152353758 -0.0006013128268179896 -0.01337039579520273 0.0218609226210842 
0.006278657566848861 -0.02341641573155839 -0.005884682805019447 0.02568270470900153 -0.008115280512328432 0.003766206554641807 
0.01443879802353724 -0.02105799830272595 0.00392227813274524 0.002969478042400029 -0.01254795330156729 0.001305129248599684 
0.000677019233974189 -0.008446424751552743 -0.002088305751132397 -0.008551832093910338 0.01753220058932956 -0.0166563890609855 
0.004009964313164686 -0.003364036914580941 0.0006343741710433235 -0.007319757869758993 0.004775780939841745 -0.01357289101115843 
0.001940658348574346 0.003340760601657476 0.00514618466877668 -0.002241574278212345 -0.0008571580377365513 -0.006230258242203196 
-0.0006724119191011109 -0.001064071771886647 0.001439122576756483 -0.002957589042488499 -0.003687235709461477 0.001363184593457022 
0.0005363155834571735 0.0009943205141145822 -0.01509208934711539 -0.007399163870322829 0.01637891388620097 -0.01214996866900941 
-0.005945360843284454 -0.008212034926816844 0.001117315348912417 0.004849003615313407 1.480643075227225e-05 0.006336364490114274 
-0.020445269517073 -0.02969103374146442 0.01008079129774843 0.02504189469383322 0.0007618848211574717 0.005646474995474748 
-0.02369180136504881 -0.0229512664196439 0.00604782323664406 -0.0002640091814391187 0.007643287780303273 0.006466668357374379 
0.01773107790971951 -0.002549115742400839 -0.0008575645041395035 0.002729833928678238 -0.003125793202586029 -0.02040692743163465 
-0.01690027716922599 0.01793198728128858 -0.003824474877116356 0.001955865492976923 -0.002565561106584407 -0.002408161338164472 
0.00290180307324598 0.001693213209720672 0.001218611113616156 0.00149703317597902 0.0008521162303420962 -0.005285982499862433 
-0.0004399809140179547 -0.00467082367044038 4.994571232550979e-05 0.002833566843419253 -0.002620279814300516 0.003294178743544277 
0.01909393988982938 -0.01371775313020013 -0.007129665135290839 -0.0001986957504588816 -0.003653144383815658 -0.01372178434523369 
-0.01334737402745683 -0.01646833756121948 0.002990840861953643 0.006654672181038826 -0.01321457142180019 0.0213392899673971 
4.476570415927184e-05 -0.005968634006837968 0.00639703282275684 0.009610676608966627 -0.01249213622469701 -0.0009540089789001758 
-0.000184206134666098 -0.004952622294141954 0.005204260357665964 -0.002138213603310769 -0.01017588299855035 0.001017458151545303 
-0.008567151997231686 0.0004663591089138215 -0.01395800350254662 -0.002018831513044581 0.01759778027859485 0.006131883308951381 
-0.005444826906909366 -0.008008341945294345 -0.001945927803780075 -0.002590581704538498 -0.007558142118388498 0.008794003382274002 
0.0008132658329357319 -0.005221025515291188 -0.002105027448837781 0.001119172825655481 -0.004170894893304168 0.002381393378928232 
-0.0009022639530452112 -0.001499885965143431 -0.0009483931762632649 0.0005701653299943651 -0.003851395762954298 0.003491686818590813 
-0.007244105354896391 0.002557552692734436 -0.01351345285827967 0.007039338177680645 0.01132802148212309 -0.005620696621927251 
0.005053488795743597 -0.005912302711759059 0.005572634378520366 -0.002518479533616198 -0.006134945690979725 -0.007371627712558914 
-0.0171035725410285 0.01497526240560544 -0.003031497176925407 0.01972302032740309 -0.01176340810348858 -0.001710603803627933 
-0.0006144999513244851 0.01994615280837483 0.002832270473182644 -0.008222485283734173 -0.008185624919479158 -0.0007508407261406511 
-0.03289619932537192 0.01403070907905968 -0.003133782933486374 -0.005962377762888746 -0.0004750977853636441 0.01707318793071061 
-0.02675652239948351 0.006687458980701307 0.02341899264781949 -0.01898847702466343 -0.009072959429918965 0.009150397438695621 
-0.009533051703889487 -0.005278113896996508 0.004956478483138729 -0.003652561352651092 0.004111483988222627 0.005515899846025008 
-0.01140933978073839 -0.004176634790830744 0.002177774646259795 -0.002442200924066538 0.002535128678732719 0.003623741334170799 
-0.0234710601348945 -0.004321532674262899 0.01222280914596961 0.01179563589241196 -0.00624454906440127 0.008658394610895428 
-0.004625570317984551 -0.005335817651668832 0.006551693348398046 0.004866025907826985 -0.01718585637163574 0.003877233588649838 
-0.01451152424457135 -0.005206808873885693 0.009069344617184357 -0.0006987789821789042 -0.01872639874432714 0.02549487023770433 
-0.008559910151825521 0.00400533680663623 0.002833761495705088 -0.0003167127986721358 -0.01143836921857669 0.01201079391648742 
-0.02178280722029771 0.0212519056751536 -0.004578448174978547 -0.0004878295971147743 -0.02263216187197675 0.003338682057484956 
-0.0158657310423366 -0.0144733419239181 0.02369657943110176 -0.03134424420044704 -0.007130622956980149 0.006155904682376514 
-0.007921347076130555 -0.001913029169447169 0.007802497496941243 -0.005038257034380009 -0.004477758285494749 0.002722231163479452 
-0.0009527660144837434 -0.0006270986798227582 0.006745071953170958 -0.0008090296571993742 -0.004975432175674392 -0.001877787333630705 
-0.003789802166600287 -0.008652416758180903 0.001893883668806802 0.008384689881357474 -0.007922084526089567 0.005521057186974154 
-0.01345905853119948 0.008489129830302072 0.0006446824292298204 -0.0200889375422609 0.000238795759172765 -0.005952902648789375 
-0.01822642151257683 0.0320482530328474 -0.01147689402214449 0.01125946020848352 -0.009987335441374964 -0.01645095888666544 
-0.01074898506405395 -0.003039551284261874 0.008056664115360644 0.005059400810463239 -0.006341033160394069 0.0007450517652232275 
-0.004807183326044425 -0.006250642994778954 -0.005824931397569979 0.01417122135191173 0.005581905230254873 0.01674628782265193 
-0.0308028128121626 -0.005204377030066043 0.01782413947516456 -0.006179134852925667 -0.008842243464039929 0.01445962798961391 
-0.01174082131454226 -0.007336580613610546 0.005512356580581164 -0.001794474978842654 -0.002969975063829966 0.005337063828125081 
-0.01871567348847715 -0.01287478438318978 0.006165189913901145 -0.005507384325214785 6.568439726327183e-05 0.01301042018432352 
-0.006309452900062353 0.005293462932287336 0.001231594806688773 -0.004463029560062351 -0.001985299685932403 -0.01238186764197942 
-0.0003923191877302444 0.00990943601818884 -0.007863200890516901 -0.01181587991110224 -0.01966859855632292 0.01217108291715043 
-0.01671308389681033 -0.006833540627687547 -0.002635375569421575 0.002221817763673044 -0.02125538717841788 0.01882913668999677 
-0.007062449368113045 -0.00127692284309898 -0.001784552717449955 0.003436561970934857 -0.01726264181384417 0.01604256866646563 
-0.01790852088599616 -0.01941701446838279 -0.0006774683244103047 0.01352385948465185 -0.0213053897739263 0.01406301792699336 
-0.01730077083647315 -0.00790518947536413 0.01619219321622796 -0.02423692466164055 -0.01625870133567444 0.01610922772157937 
-0.01859545376842035 0.00393579638363738 0.00444611481979335 -0.007101473932050165 -0.005121637914776419 0.008494491022620228 
-0.01308886224282758 0.005270090838122568 0.005240175894534693 -0.01010259508969111 -0.008789827984364142 0.009334621680549431 
0.008114508531663555 -0.01319340827992777 0.005797670416608003 -0.01968895825030733 0.002764212982107252 -0.010946321593508 
0.01082509025384841 0.01678107420013091 -0.004308107184807628 -0.01768919937900361 -0.009202103114024789 -0.02046227997158945 
-0.01753303822991388 0.01780221941381038 -0.02121537390631385 0.01626873846836013 -0.01786742161172673 0.007664045195908595 
0.004452776047647892 -0.01709159334879875 0.0009578939050290626 0.006091615192844327 -0.0113354531167933 -0.0009479503835754578 
0.01956716527110744 -0.01261864543828448 -0.008219296967335905 0.01105347364953583 -0.004872285444301715 -0.005435722514823119 
-0.01864517290452045 -0.004998090477851347 0.002642449777821689 -0.006303031986475743 0.003757871203073213 0.01060811517562083 
-0.003293349247394393 -0.01473073993931811 0.01031314686885794 -0.009129392682233239 -0.003914193899598454 0.004580034781045102 
-0.005399317579271346 -0.01394708416065095 0.003149012624867672 -0.00551220916649977 -0.00471899421438022 0.008623870787465095 
0.02114447150082344 -0.0138492193812368 -0.007675529387377525 -0.02083244235289625 0.0133506901551607 -0.01995698546923559 
0.01620370778433084 0.05155549473234813 -0.02117922860293151 -0.02647456645453405 -0.01649213517896787 -0.02126299529964586 
-0.03010823805587651 -0.004615210339549105 -0.02164890678991607 0.007266327911812621 0.008660348854368364 0.03262781300804645 
-0.01924359308173764 -0.004302877902308492 -0.01797826259265599 0.0200881961222506 -0.005432146408874513 0.01546553837874059 
-0.02126607139516356 0.007955481601275918 -0.02057419910790939 0.02528558297256723 -0.004537396369212236 0.004212199619117131 
-0.01229468376114483 0.00822695030543791 0.01081311618974977 -0.008648900814564516 -0.008062894361248059 -0.001424173896362223 
-0.009567551195278596 0.002861792131319653 0.003038269063389156 0.0007554485991007158 -0.003119793137454777 0.001910119572200599 
0.0009672996940878755 0.01081398401785074 0.0009399948831136671 -0.004967317138839871 -0.004930433226085266 -0.004145040653881008 
0.02469541667420123 0.01052120715763745 0.0102074471867748 -0.01801901778672578 -0.002234153382645083 -0.02880643584587808 
0.02320749834881708 0.01405762990329847 -0.02128905341031713 -0.01288673255860546 -0.01918427462173799 -0.01113967360655294 
-0.00255440799523199 0.002816184018755442 -0.01354599950012958 0.0104370148688313 -0.02491471298767715 0.01169540274060459 
0.005381424153029687 0.01875088458840439 -0.01036903998507968 0.0008743128020926875 -0.01413065317490501 -0.003848912048099578 
-0.01422018560730004 0.009131464910775572 -0.01041347710197409 0.01575622682248324 -0.003186369065881088 -0.002122578831124458 
-0.03077936042172088 0.008490003411954003 -0.005677263164030378 0.007729150913560275 -0.002355377038898053 0.008188956791024802 
-0.00873755098372957 0.002880727285248951 -0.001016873693802458 0.001729613581715151 -0.002436686848327698 0.00164789677976203 
-0.003250184083987702 0.003780437923321577 -0.00171840461190901 -0.004168793403801509 -0.008438108439472354 0.004785160022817651 
0.02554190108572674 0.0139804703288158 -0.01095154852536889 -0.03179282079903809 0.0047577053664386 -0.009889732560972185 
0.01830609764966869 0.0479845758927334 -0.02357507992047736 -0.0424482112783786 -0.01942776584683125 -0.01065102408616225 
-0.007805782123335722 0.01237865925879042 -0.0234431882557261 -0.006340067366243887 -0.0002958783422462449 0.007963748826531038 
-0.03037861912571029 0.01845783698263989 -0.03145755225861364 0.01015784225728987 -0.01200725362617899 0.01638437237567977 
-1.534730829457407e-05 0.003392879241417521 -0.0247316549621794 0.03709321139945492 -0.00405131263006421 -0.01366310542828085 
0.0004033208996771431 0.001291909643874865 0.00238296783934617 0.001905631598951554 -0.008141556574832154 -0.008312347890399559 
-0.002428686191250394 -0.0005222136860358447 0.001830427625604349 0.001230430556318063 0.001331187790303973 -0.003329364352412185 
-0.002453769007810747 0.006386079514378317 -0.003837159855152458 -0.0007506160460049002 0.0003927036755886252 -0.002646550552550672 
0.02599927207763665 -0.0003305554992671583 -0.005813334083312318 -0.005152333978828501 0.003503947496129461 -0.01582626456606621 
-0.01135987184636021 0.02005374752598405 -0.007019593333515239 -0.03160567736945283 -0.01931404702798518 0.01339223029529687 
-0.005625882173591324 0.01391333754515986 -0.02561152763692849 0.01511194421081487 -0.01392925897941901 0.01209744484097851 
0.0004477521697044615 0.01651404845675369 -0.01448277722450544 0.006458565811761312 -0.01607196530816249 0.005090724734851546 
0.01300802367365223 0.005796231575449548 -0.01827062299350338 0.01213726852344984 -0.01532010602502615 -0.01518105465251118 
0.006762929143300347 0.00821546703014917 -0.02719471488910207 0.01825316504250188 -0.01388022296515926 -0.01196569689736709 
0.004417943260226717 0.007091172021007985 -0.01157154916258038 0.006641136644508006 -0.006541491651701926 -0.004489101911912373 
0.002697971405820482 -0.003208957925080057 -0.008591526581242643 0.006374656134806709 -0.003938370154176663 -0.001550952150825363 
0.0003436521217388426 0.03772769898474179 -0.0090971800024717 -0.03285179842866479 0.003601585824357179 -0.01799498484929529 
0.03320515197610672 0.01439728575299191 -0.005557578301902523 -0.03973230624175182 -0.03785814919949564 0.002903744022944179 
0.0336404995429539 0.00457338938104497 -0.009260484839250367 -0.01909298731880713 -0.002272407941273241 -0.01206266680517403 
-0.02533912977776295 0.005230163829075506 -0.01301313677716229 0.004722345029444986 -0.009862066145350264 0.003192982191802364 
-0.02602496664510228 -0.009772219284932286 -0.02332060147792716 0.03685325473931171 -0.01329721182630121 0.006227094016272857 
-0.02112563629213026 0.004769765859178015 0.007185852363215707 -0.00400841883301626 -0.005476630568896908 0.004140023964448531 
0.000822141961290919 0.002270113591270006 0.002915495494709391 -0.003243605449325051 -0.006151663239420909 -0.001708708426198977 
-0.003831641444032252 0.004567160639356545 -5.520444776776689e-06 -0.004320914107513541 -0.007219740457866919 0.001514269267575614 
0.02239538815173468 0.009570966060445179 -0.02661510508039609 -0.005862515113140362 0.006661922937637119 -0.01068659130843617 
0.004412158432709206 0.01195266207792933 -0.005237171778565925 -0.03613514598197366 -0.01077707876126698 0.01341860949856042 
-0.02004282719344214 0.01114576592963635 -0.01077833380525129 0.005170225676653777 -0.01852810327707645 0.01913247777236305 
-0.004055095018571454 -0.002217434963515697 0.01015635709344585 0.005792525047670207 -0.01860393092237837 -0.007129247032925247 
0.01781757132338381 -0.01906806316898708 0.003854328533659728 0.008047839403559152 -0.01453707916663028 -0.01843064338567072 
0.02529963609480401 -0.0167218077758422 -0.007185184264709699 0.003786649252471688 -0.005164698121254706 -0.02125360224244062 
0.02230613019263563 -0.005306896031499523 0.00070027353311944 -0.0040197211752813 -0.007235801404865913 -0.01145902063103008 
0.01228155150182426 -0.006307245456919772 -0.0004639935360258781 -0.004381970198277177 -0.005186543369893442 -0.006264010375659775 
0.003660985723477724 0.04441865724599318 -0.01193456023621772 -0.02324126068505509 -0.0250940419797535 -0.001947943616520423 
-0.001097473994811988 0.01587193732539765 0.0162009292607484 -0.03869785364364849 -0.03439801603458248 1.488457638479098e-05 
0.03490901639825364 -0.0272090636531658 -0.001830437893886558 0.01619285112377409 -0.02776358024686136 -0.002212377842751967 
0.01092276676867313 -0.01193693948263489 -0.003181739499102874 0.007081325687622742 -0.01945133835623307 -0.00478758506216151 
0.008709631505624845 -0.01133439889073007 0.003782446695964325 -0.02688750073653315 0.007621945938616427 -0.01701801531776439 
0.004462047964352606 0.006328288656927521 0.009201233323446217 -0.02373692696740028 -0.002824444397412148 -0.005346409727468356 
0.008354213184097266 0.003480001124009218 -0.001116115215403175 -0.007836059638063012 -0.003678018968990168 -0.001845531549483914 
0.0008379243671635035 0.004013479704190398 0.0002520367516586919 -0.007238178748610933 -0.00509574626583927 2.720825706026962e-06 
0.03517517699079084 0.0004175108808150488 -0.02293920886842407 -0.01206437361709932 -0.01434642818072869 -0.001043121676896199 
0.03745970123245851 -0.01019515783577593 -0.0001853092992431015 -0.02400043919772342 -0.02853522887364687 0.00726677031632352 
0.01007298076101729 -0.01460455890437672 0.02791386104914791 -0.01895429019352387 -0.03556268977283156 0.01055623178720205 
0.00181130416457617 -0.03411431288512259 0.01751552943431287 -0.004392661559648613 -0.02679379894022376 0.01328093474075572 
0.01947320864818056 -0.02730192903449375 -0.009357688944308089 0.009573722639783705 -0.02383880124774463 0.009970781868878264 
0.01384896670018725 -0.008425137162110057 -0.003972575312285257 -0.0001007990707659697 -0.01203823434193775 -0.004105325053977973 
0.009063050914947773 -0.005665216601091887 0.002951528479582089 -0.000111948988398084 -0.004235475926896742 -0.004790259348260481 
0.008644206186587877 -0.002773425533957421 0.002749760409760988 -0.005102092027693283 -0.004454219080647562 -0.003009831519492927 
0.002112666022572645 0.0521909698194289 -0.00182820786163884 -0.02907599020068515 -0.01159319275056271 -0.001940519551751913 
-0.01839523518467733 -0.006601270230532618 -0.001287948483959549 -0.01697623694813931 0.003263478191213946 0.005475775224774391 
0.02459353954137482 -0.03279788667418348 0.01022300511790519 0.005766305246893414 -0.02299125552104225 -0.000615637453901025 
0.03965372291118634 -0.03211970784742799 0.01626571159506438 -0.001930837881513286 -0.03208543062607788 -0.002089774658111392 
0.01522111152305062 -0.02552513513909122 -0.00996529340609829 0.003984516652727807 0.01409178303420369 -0.01031600245600931 
0.00406529154178286 0.001714942304951222 -0.002037754962652523 -0.008662852715836939 0.002012364601491016 -0.0100523691795434 
0.007478601588512838 0.002613364788457588 -0.001307487407622709 -0.005880713252349027 -0.008290281070424814 -0.001955954782191568 
0.006482141793113455 0.002197242758028991 0.0004836560908170603 -0.00589613534864326 -0.007303705677961496 -0.001538757613019953 
0.07082022343603207 0.001361012605079145 -0.01653716498667097 -0.02563799037797004 -0.009175129383953658 -0.02740524425761295 
0.005912496518082864 -0.0165132149320096 0.002792381264834911 -0.002470436289034263 -0.01357005406069996 0.005173856934623663 
-0.01407080156961288 -0.03341585374452763 0.02867964513665722 -0.008779999063724354 -0.01562244488089079 0.005558001891238687 
-0.01290831935390359 -0.014219670635974 -0.01698853897064491 0.01792426039857207 -0.003123163978329598 0.008735370814669789 
0.02014538446244954 -0.002183084394380255 -0.004475641117189543 0.004892265849800772 -0.0005097320983583426 -0.01786781976557589 
0.01637333958649031 -0.0057551645012098 0.00582653646119521 -0.009249079970092607 0.003330759795263098 -0.0130499829387007 
0.0005220854724574496 -0.001431425054476039 0.0007797718382273715 -0.0007557922745041223 0.001673181449512192 -0.005957661232782464 
0.006138266600642667 -0.005361289759331097 -0.00123427713703601 -0.001372732945216596 -6.792812720777035e-05 0.0008764005269456544 
-0.001215256580086858 0.01756270158759695 -0.006561959067545511 -0.01856793771008434 0.004695531047172542 0.003084735742342419 
-0.008650637850139109 -0.01645618263856068 -0.002935335978899084 -0.009919648674582452 0.001618187454237131 0.01068355801357939 
-0.001156539983720505 -0.02284418923163702 0.00807174803683937 0.002048052242286676 -0.005142034187751725 0.0117530801332392 
0.01558775897949515 -0.009578347817618332 -0.003386770714217086 0.003400795543276113 -0.008051006867009419 -0.0002526094090165273 
-0.006264692969797015 -0.008852092761021592 -0.02128250790654335 0.0045700318964713 0.01178163203719024 0.014690265194008 
-0.00437478855888204 -0.0001491437393348215 -0.006911463273917178 0.001772600805583944 -0.0135959119852341 0.002417764594231985 
-0.002363339722706402 -0.00106380041742843 -0.0007713080083887799 -0.001285771202039806 -0.005752025188187191 0.001188730079233908 
0.002534912822041159 -0.002521845223048077 0.001299943563775528 -0.001688534190203736 -0.007108108928194908 0.001131175323003443 
0.05101945996972972 -0.0209046329428579 -0.0191203043178261 -0.0141513085526611 0.02408683116487645 -0.02095388602899836 
-0.02343465601567544 -0.003134455750255875 -0.001561139461653948 0.002962639360187357 0.01148225514483017 0.005727092249476313 
-0.01572596544008227 0.01387410751180921 -0.0152020216930436 0.01440601442485672 -0.01544501388390278 0.01626244875485388 
0.004494143875990124 -0.009396551112996337 -0.01087398412709275 0.01121282272324954 -0.01192696891537509 0.01079679730365678 
-0.001407783901903941 0.004532540398459147 -0.003390498197422263 -0.006461951336789552 -0.01068241680525149 -0.002411067749778043 
-0.02785370675287841 0.00127074495560128 0.00335577468627031 -0.003510993215902942 0.004863864040832614 0.01117707871355737 
-0.005498510213665022 -0.002719406798115941 0.00889162698878773 0.001663097058280438 -0.007930483557572329 0.001225995520194159 
-0.01117070505689454 -0.002076405779238652 0.001906974706283231 0.003456739807150008 -0.003309871026964542 0.005291782033182851 
-0.01209162194203268 0.007225745977529707 -0.01897218694177988 0.007748260977549205 0.02096219118109969 -0.006708640302274048 
-0.01144172911816729 0.0002391380638580024 -0.01539648400244333 0.0141685896411317 -0.005223526494957926 0.008948072487791545 
-0.01195201423434972 -0.01973702602251876 -0.007822452798190924 0.01432136911222885 -0.00537852154264312 0.01582271830049157 
0.008651693842903544 -0.0122822667677183 -0.007424089721532154 0.006315999400431947 -0.0127806956236756 0.006938321703246001 
-0.02538067360734833 0.01305899728433036 -0.01805587957728436 0.02320734196867799 -0.0199861603220411 0.005213599578010476 
-0.02025687372194288 -0.0113009635915032 0.01272547914279321 6.912301577897117e-05 -0.006596838660170239 0.004817794498074943 
-0.007908005835129794 -0.004756778806735721 0.007459887470763002 0.001197882758571263 -0.003720210449534026 0.0009201690570251406 
-0.007040081683114337 -0.003952878048772834 0.002333468282352571 0.0002278769589122312 -0.003266452068677982 0.00363057227734936 
-0.02936514903121382 -0.007777837708667896 0.001511771803537683 -0.0005958990888536675 0.02877173778347248 -0.002639023488464285 
-0.01445222610100302 -0.002000791050722247 -0.01464966006007759 -0.004196586045561204 0.03795998358813305 -0.01279078986965196 
-0.02241205237014515 0.01910226021321831 -0.0159684294154309 0.004773709298639483 0.005100166188832442 0.003255990679673338 
0.01513875460517274 -0.009918659930297178 -0.01276659137697389 -0.005973226088746814 0.005352691333157415 -0.008149648137508186 
0.01219295290210034 -0.02800258751050316 -0.008199882331069797 0.0206715175476347 -0.01194114242557925 0.01448878526311148 
-0.01631746918117217 -0.01234822493751964 0.02424720841997626 -0.007042648104513284 -0.0194361274081308 0.0138232803062172 
-0.002822675028740187 -0.009664364332215984 0.005645402241029279 -0.003113545316786811 -0.007279419594114149 0.007827085852561418 
-0.007290507520412989 -0.01385109079490491 0.007085338767328474 0.004802274570268297 -0.008773045344631062 0.01017311603420019 
-0.01791887693764003 -0.009816472882190832 -0.007444281871609537 0.01353773468562414 0.01615767313875897 -0.00550380590843473 
0.008888980577604321 0.001224347706380723 -0.01343586368910133 -0.001286202477077663 -0.004176843446947903 0.006136337504301878 
-0.002749585727352068 -0.004364825731095319 -0.007840480639280828 -0.01457946715188405 -0.008972487292714959 0.0123300414628835 
0.01568927605552764 -0.002632601251068588 -0.01149364199944318 -0.01706934623729495 -0.00151303550477577 -0.004842496641790663 
-0.03608988113193409 0.001545036956351536 -0.02994756254923184 0.003404852794168938 -0.003377682675356292 0.02953188629171826 
-0.01866813746268342 -0.01918851185633828 0.02397698599744972 -0.01482066967506723 -0.008155884263791166 0.006256548172688396 
-0.005351213491939491 -0.001814785671008654 0.001780775675180971 0.004042127071039279 -0.007533416788498755 0.00202247719507785 
-0.009834568550680819 -6.502447749220624e-05 -0.001628707575887272 0.0009440997308891774 -0.004128461772761585 0.00781196073454735 
-0.007530239604869531 -0.00922767724077068 -0.02099405935937325 -0.0009266989490083929 0.03839547768118249 -0.0056599155748513 
-0.008693453748149406 0.0201362193440903 -0.02066811838592992 -0.02112863079283935 0.01678327507173574 0.0116300227356349 
-0.02169446138392932 -0.009184114585336111 -0.01181215878074518 0.01571864733278496 -0.03927511335064109 0.03479972205818387 
0.01700307521022251 -0.02558492317151925 -0.01611085591800177 0.02384780147992169 -0.02492837063890355 0.005447919841563391 
0.0308304817340465 -0.01454972972447418 -0.01765715538258541 0.01277739464867268 0.00106478990176043 -0.02043952994446046 
0.005919166898459768 -0.01302058826015486 0.007786412020110518 -0.003499623816048845 0.0006342586292861292 -0.0093718816557655 
0.009920187605362363 -0.006589997070427835 0.007620007883666826 -0.007229362260275275 -0.008117759965842141 -0.0033401575469302 
0.008682642302528111 -0.01918305162889071 0.01366919511996568 -0.01130499183404143 -0.00329581008364936 -0.004687847574187449 
-0.009427499556673057 -0.01414689046113675 0.0217576883572692 -0.01022704500463515 0.002372623053385611 -0.01695764525965429 
0.00928958794570516 0.01556531394715189 -0.01782063867571477 -0.01367306308028764 0.00919018150967261 -0.0137841819627432 
-0.03683083458264137 -0.004317660228823522 -0.02008938189095397 0.01299084828257856 0.05268606914140776 -0.01182691766375765 
-0.01975976767951987 0.002664193872836563 -0.008810049968514339 8.211623051606956e-05 -0.001203106531834865 0.02397860147617868 
0.01530035545456408 -0.007943429448744843 -0.01894931020827776 0.01293683699524639 -0.02151733337692491 0.006864442222239377 
0.02854235886532287 -0.01349322197183556 0.003316628498041878 -0.01074915242859313 -0.02011854209490385 -0.00864405340360079 
-0.0009050387794555869 -0.0002930110350262068 0.001764636179667338 -0.005926370245538543 -0.006363886927892988 0.001764420715542601 
-6.585372735188247e-05 0.001512432409130021 -0.003930360804171078 -0.007302711819557598 -0.00531694597324475 0.01000800178361824 
-0.01745327298171071 0.0001076784622919363 -0.01066138627377783 -0.01015662031660171 0.0281769161251361 0.003488668959687558 
-0.007442272384354908 0.007200775416505739 -0.01756696968950531 -0.01756687285375327 -0.00516453744394373 0.02839309755023975 
0.001517015632961098 0.01755554635818401 -0.02484943579872134 0.009953609767679759 -0.01816287493014625 0.005067620053018181 
0.001140834451467277 -0.01022440789798989 -0.02092874304379427 0.01573328213611286 -0.008711346842872362 0.009987195238148883 
-0.001682132156033527 0.03637880286074262 -0.02543643113556237 -0.01421564381794193 0.002769659582507235 -0.003269731476764314 
-0.01815184499844113 0.03478266485554143 -0.005829245286583827 -0.0189780758769612 -0.006235306159228512 0.0004050784927399106 
-0.005704538340175233 0.006412639207692808 0.005028665041982266 -0.01368915291543464 -0.003509616207945601 0.00119798958584002 
-0.002268378781910728 0.002879441781017722 -0.001998758684752937 -0.007084981707337261 -0.005470695388858443 0.005007367543491723 
0.01794442419673061 -0.03465889639700133 0.02253358155483926 -0.0370070151629955 -0.001308033726165271 -0.01399024732138462 
0.03344320437490103 0.003825861360697266 -0.01265945615940019 -0.00897215930258095 -0.009587677252299653 -0.01742186610587601 
-0.02006882767207931 -0.01008895590639318 -0.03310486002951997 0.03417454389031374 0.02447427467474069 -0.005800008603718694 
-0.01944887550330481 -0.01889081504761101 -0.01678072185538847 0.02862842921172133 0.003882478217230181 -0.002561121925563438 
0.01217829981326653 0.01014294483285983 -0.03735418448079089 0.02653530014713323 -0.0229116497078118 -0.02609743097077943 
-0.003538792119346599 0.005586826310443787 -0.01914679033255205 0.01295013531049053 -0.01634886399447295 -0.004192301045369782 
-0.001205235569392774 0.004304734695561932 -0.004703823162070139 -0.00226800587419442 -0.006526604854837031 0.001043727552452967 
-0.01258271458896578 0.005054508117489859 -0.005599406450382181 -0.003312745033950122 -0.01014201146239438 0.01920195291569682 
-0.03705216856017193 0.0149833021487484 -0.01121060875769264 -0.02184484722423197 0.03668623633522821 0.01590044216984416 
-0.02099255705286774 0.0138843527517628 -0.02564523285812781 -0.02441745989329672 0.01141508809713654 0.01978530085521082 
-0.02732929282986331 0.06453408872866806 -0.005694143399893885 9.047150919403788e-05 -0.01774699713650529 -0.0004371744060306526 
0.002701074698707786 0.008591072831469383 0.0008505268202967594 -0.0008596029420750995 -0.008438917176729984 -0.006265305102229134 
0.01980367551643747 0.002053276202036706 -0.03439909067749176 0.02039689412900158 -0.01547863220304107 -0.007662168689219498 
-0.02663473917388629 0.01094476352818478 -0.02439970694609264 0.0176253757419141 -0.003089927631217018 0.005200838491845483 
-0.0004769678762232899 0.002572133293132113 -0.007302628387705385 0.001622997685997836 -0.006142584983894453 0.002314330138877796 
-0.005156418096437227 -0.003408730291650709 -0.002460987635935215 -0.002994017067167649 -0.005338371702392038 0.007704034348207009 
0.01030445223239778 -0.003383085974780107 0.002142449982207685 -0.03532773415410158 0.006986144525928607 -0.02069662874100406 
0.05676736108402296 -0.02188861966735763 -0.008031674543871532 -0.0289458164836038 -0.0005778691044152676 -0.02429025225668876 
0.03444697514317256 -0.01072530971029293 -0.01575325522361856 -0.00248271008436523 -0.01035425333008707 -0.01978691457404537 
-0.01119599180282556 -0.03796211179676463 -0.01826327272895708 0.02379759420792198 -0.005471954593834106 0.008503518993671714 
-0.02512628973022262 -0.02558806837921766 -0.0250930979062062 0.04317470682741774 -0.008564319795802624 0.006707116735240738 
-0.0132457055818554 0.01880103840094113 -0.005581246856649315 -0.005477193017248768 -0.01141408651026323 0.0008541738980256161 
0.0008128147509198749 0.01220169010396842 -0.007720128711091521 -0.003010275930583807 -0.008435054856371325 0.002280543844150619 
-0.00781251345953248 0.008812713942657249 -0.01066206468539065 -0.003016981155007115 -0.01073016762001532 0.01617782799663662 
-0.001568840992799713 0.007105991542004109 -0.02246394140294648 -0.02051152151469394 0.01717717963730462 0.01766813057298884 
-0.00991310617101324 -0.0009489654591558408 -0.01671808476741394 -0.0178918524288198 -0.02561158498590852 0.03705958463582223 
0.002021106690829941 0.03252064126095605 0.01525391238098611 -0.03461321312103362 -0.02976821674565359 0.0005564856438015504 
0.007965085123527853 0.0007691450658043262 0.02843878168373411 -0.02570436789333153 -0.02323914181533963 -0.0111109721424299 
0.02576072927696592 -0.03058650392053461 -0.02329084903219501 0.03138903808267333 -0.009768444121586147 -0.01977838024750414 
0.02302331169213461 -0.02969692046305955 -0.02292034340812708 0.02727300278279639 0.0008016109192582265 -0.01670235046899743 
0.01583583551121982 -0.009047274310458141 -0.006145690441847985 0.006959593936236809 -0.006870267318197643 -0.006069536238226158 
0.0127889695708353 -0.01523848671567085 -0.006324161829957017 0.006337970173171334 -0.00749258056838628 -0.004494317487750903 
-0.01159020098862872 0.01759408251628752 -0.02356891997790829 -0.01560552957080158 0.01369295501046539 0.003906845250406493 
-0.02234569280835396 0.008561035445278121 -0.01091367163888706 -0.02590320989881593 0.004060672408661028 0.001770724296686902 
-0.001790314447446712 0.002399443225103421 -0.01126844861161191 0.00764908566805915 0.004591094440607147 -0.009312199662694006 
6.814698558738478e-05 -0.02143710554189104 0.002867743300183858 0.0102527862774032 -0.01242613334674308 0.003692913132512488 
0.02386418718677811 -0.01339444879295884 -0.01117638499182607 0.01626871176230107 -0.008242337216308807 -0.007009537446792992 
0.01801510225318986 0.004831745782656337 0.001595117530198391 -0.006976455859587551 -0.008353977242371977 -0.01100484477423491 
0.0154139851948879 0.006611154426962604 -0.009756927555847388 0.00181369682500823 -0.004102673329618541 -0.004372433254543989 
-0.001971536815068389 0.005295107045507575 -0.006853172809257855 0.0023409258267545 -0.00566217218323161 0.005202241930721468 
0.0204624359304368 -0.005977211739536775 -0.04838922361222822 0.008827436408641611 0.03241700463231785 0.004926886426074091 
0.01477392937151217 -0.005404782370982492 -0.01809653667609292 -0.02871754403262893 -0.0009233796997124449 0.01084227254685871 
0.0314524745457188 -0.01670645820150521 0.02549313487823885 -0.01844147285665334 -0.03127799352483489 -0.01530138827556929 
0.02783736977650652 -0.02177356589174147 0.006563005214269534 0.01022308886247641 -0.03275632605419097 -0.000599053662128099 
0.007838564210867776 -0.0203453473083294 -0.01876628760097682 0.04150711009065566 -0.02181846693844345 0.001928057187598244 
0.01401764138428432 -0.01563798015912651 -0.005759544001851677 0.006607163146537648 -0.01305685072887208 0.003461077739921093 
0.002918864412301371 -0.005422878718942796 0.0004927199626446802 0.003875453149817843 -0.00665541364277642 0.002376484274292381 
0.006991210195679144 -0.007023873055190523 -0.001172686887086543 -0.00229521469552574 -0.007338079195830211 0.005171922456434454 
0.01271088473024831 -0.007044662136664276 -0.01366751119184146 -0.01150883369129626 0.01077640438252113 -0.00249779118120119 
-0.01381332812028857 0.002193895494513702 -0.01902150399525048 -0.02211435513753319 0.01337680850489087 0.007698084497611809 
0.02828799635095385 -0.02634800509163425 -0.008621156394247181 -0.006375246290923985 0.0140679203787099 -0.006223817297791452 
0.02658984297660288 -0.01834737905123844 0.009389600827743387 0.006113221541259561 -0.01506075543272877 -0.005260121742932849 
0.01895484258127271 0.0191056339591675 -0.01690025441225294 0.01060264455001534 -0.009322942905283604 -0.01985008212323899 
0.001531520388971875 0.01504595935452991 0.00381143758173844 -0.01646933264836708 -0.004810685973060874 -0.008457727807767566 
0.01849115469948021 0.000767786351833103 0.00126528223605104 -0.006606410059344086 -0.008941486750549803 -0.00565373761925668 
0.00993282924093652 0.004553313944474645 0.001508628194528835 -0.008352550802995528 -0.00508327855507285 -0.001862082692764881 
-0.005334989659883468 -0.0007278901185405095 -0.02992525906460981 -0.01717184650291766 0.03941472265055221 0.005671250376867879 
0.006522158487920664 -0.01206511056375333 -0.01038373111018616 -0.01191677411607666 -0.001976513627728578 0.01085102190056049 
-0.02336342536673696 -0.01439307620990777 -0.0123377252932861 0.01288183436196345 -0.003828641349779274 0.02462244202832533 
-0.01038100715302593 -0.01653383333752708 -0.01388787212207804 -0.005557714790336932 0.007193010846869523 0.01879672405242678 
0.009453286464679536 0.007028239219254607 0.00366442476428989 -0.01030606223330851 0.01470101051716885 -0.01914894139804298 
0.02468080147383867 -0.009979026136523163 -0.001123644138401727 -0.01749046441237515 0.009425647719135745 -0.0108889449598506 
0.003182063313217699 0.002737038372683845 -0.004679330695337934 -0.008275141351078291 0.004663945196674885 -0.002498488817097811 
0.00390477833807522 0.002758806036176053 -0.003169745196856566 -0.008354723703370724 0.003108401460440268 2.254927200380408e-05 
0.006000431520336501 0.01478782488127489 -0.01672162379141199 -0.004799705061827106 0.005666198088635536 -0.003542301124936738 
-3.003570296837084e-05 0.001283693086442512 -0.01505329768876647 -0.01548938711236209 0.01309675247691229 0.006632937209896324 
0.01512185311694787 -0.008947837854575471 -0.01753990083799013 0.0002876118553736103 0.007310935554089222 -0.004276063563961138 
0.0175044739456405 -0.007441545122219758 -0.006729756434492667 0.007999743955277359 -0.01473618525604924 -0.004780902087315211 
0.0179240918182935 -0.01227412203370939 -0.01489742352088454 0.002876876358280594 -0.007053748388485052 -0.00715029288726259 
0.003694885861755697 -0.008411619683193323 -0.006705893920113873 -0.01308939028599686 -0.008804458026167767 0.01243701025903439 
-0.001977649406477706 -0.002563604053698739 -0.001107524388851583 -0.003598584635890168 -0.002240477796314177 0.005886233060789102 
0.003213996041660089 -0.003525409539547905 -0.002271905305112593 -0.006411194970839238 -0.001280884392171391 0.002537269416072653 
0.0230901778046718 0.004301596705654937 -0.02471817602050756 -0.01114059897173653 0.004890579105196513 -0.001846312717122093 
-0.02452410295786905 -0.007303471372264938 -0.009393218161889845 0.007839172377922223 0.04477333745911294 -0.004941044051833304 
-0.008776751910012178 0.01569824221512854 -0.01759430372749511 0.01653425822374207 0.004599725905099704 -0.001199864824576628 
-0.02762677299705807 0.01098048822110749 -0.01251434485906719 0.003891883965395073 -0.01043554015150673 0.02831310360545006 
0.01778878897102062 -0.008633571709447015 -0.01247018983837342 -0.0136370826812013 -0.002618330361915207 0.0044966172518362 
-0.01607358664507228 0.0008216436842234476 -0.01367297664607186 -0.005718894108795725 0.01028936352929025 0.003659941893110672 
0.004045025136411614 -0.002362448774280291 -0.0003114796626327827 -0.0006230663367353147 -0.01137712476191873 0.005500965168255122 
-0.001138220873032766 0.003681744537018154 -0.003265392134265742 -0.002139695477965634 -0.00685056282180813 0.005396368467943732 
-0.004254944769668978 0.02469739517265385 -0.006644011858343951 0.003665136198414993 0.002079328633740946 -0.01317373770315153 
0.009091846511125457 -0.002918647698949848 -0.01480803248507684 0.001800512939098126 0.01123186011583344 -0.005517327396917897 
-0.01478422342329807 -0.003607971097451534 -0.009839168282491099 0.002542651840079558 0.01478470557123637 0.006159009865003806 
-0.001580286213699859 -0.01050800200831639 0.006299884466763612 -0.01875656287499299 -0.005752664090548713 0.01490742079145526 
-0.02705520983373758 -0.000211446983343042 0.0008769489860515265 0.01339666223508189 0.004614871339223503 0.004216089355565699 
-0.004863981491456234 -0.0206373672566195 -0.008269598284420364 0.008940939307136001 -0.005936161604835573 0.01982044645790516 
-0.009619501761557519 -0.001422415267312356 0.005173162964393131 0.0006695233452106762 -0.004093192659249341 0.004047126382679589 
-0.007864181847820444 -0.002151006320107694 0.0009194460294141836 0.003331626077835353 0.0008471888197010925 0.004589586646715734 
0.01949186296391205 0.002789458322935573 -0.01167143921124686 -0.013805363765058 0.02830016328140889 -0.02527634098775346 
0.013204095278365 -0.02250643616410581 -0.02098095282631461 -0.003166636174943693 0.02689504902114547 -0.0001346360804343998 
0.008901235860863225 0.01711767111494171 -0.02617911959196652 -0.00776427908778098 -0.008053746699062479 0.02334930911472294 
0.002097995942436477 -0.01780956622152669 -0.02075509821111158 -0.01947969146253364 0.0008379882128987531 0.0353218662292236 
0.01075146619202446 -0.04855932196595084 -0.03201513152809915 0.03108310955238494 0.01601237654014314 0.01747363127397426 
-0.00822771523530511 -0.01823498849689729 -0.003210933713418396 -0.0001824302513652195 0.005251554793803993 0.005125058336633901 
-0.005754724852297534 -0.01149328099383072 0.002057915484312176 -0.0009500215921740776 -0.001751676997683037 0.01377650530145366 
4.764285345980212e-05 -0.011566132821687 -0.002846974401161364 0.002070697090983964 -0.0096775369579687 0.01666833314971523 
-0.01130799255592871 0.01459085044203805 -0.01104386104480252 0.008615929996813819 -6.08714826465375e-06 -0.0005058078438362468 
0.01386064052918428 -0.02027748170627278 -0.0157251932056321 -0.001935490916909477 0.005134526276847527 0.01285386579835999 
0.0109274237593154 -0.005425016458662413 -0.02341629524255199 -0.001562911717311865 0.01194388169165321 0.003497061972953942 
-0.01464379641066432 -0.001887959507272294 -0.02284078960618779 -0.01230345444905624 0.02574013269010107 0.009075763517708666 
-0.01721145221858233 0.0156048811525715 -0.03524269496025247 0.01750485251234284 0.01483513419673744 -0.01133239839014693 
0.002153316134275815 -0.02520716115531954 0.01519768119563451 -0.008896601057126072 0.02001840072943988 -0.02405917653330705 
-0.007831781904062021 -0.002516422640040429 0.01132555278786843 -0.0008661212400393347 -0.002554137631447651 -0.003219760014339451 
-0.002764690728937001 -0.006555055275319939 -1.230366645376772e-05 0.002690763460223157 0.006669665233249156 -0.001018686774019486 
-0.0004068180230409652 0.01089157936518815 -0.02617745894001796 -0.004923232278588131 0.03540077613982985 -0.007554825598689022 
-0.003427352210662501 -0.01364183159183337 -0.01347104874373368 -0.01085553214421761 -0.009860538459889222 0.03718972122552929 
-0.03057048569309573 -0.01782630648560474 -0.01108163176881092 0.002927500098432891 -0.02243112274949534 0.03491617499346499 
-0.01248769159415938 -0.02751476022442312 -0.02539025652686427 0.01224773775833786 0.004576473856459231 0.02995120126336039 
-0.005959404494756408 0.0169626463850547 -0.02749875035321864 0.01679509783482581 -0.008675811320215705 0.007261185035082477 
0.003913987393312514 -0.00970928286829045 0.01774779444579636 -0.01580136352694336 -0.003711822047885182 0.0004930129020917734 
0.008781692664375276 -0.009219950261555501 0.002437416865336158 -0.008147902568303247 -0.001370687141779846 0.001279041376602491 
-0.000533606638657882 -0.01236544379630979 0.002348333334060415 -0.001556097309317884 0.007279446555370819 -0.001639309810320695 
-0.00304924953831146 -0.01158567953244134 -0.01577999756158578 0.006312653828066191 0.001467024172187906 -0.003779854464152507 
-0.00670850505800531 -0.01194166247184471 -0.002301584279994322 -0.0004259233723127168 -0.003415636089503912 -0.004534486959535947 
-0.02017142351817921 -0.01503080974759211 -0.03882382759739469 0.008655349698311873 0.0727536065829147 -0.01746287298030428 
-0.002483825850013938 -0.012590649917303 -0.01740229073194441 0.008799020921888716 0.03294210088475954 -0.01305354067978132 
0.003751276405334107 0.01608518775428592 -0.04406638255639447 0.03403649650996778 -0.01927227923528656 -0.008750135603221697 
0.02796525606512963 -0.04008016296330351 0.01812827982959938 -0.001727018782059305 -0.01672695184902001 -0.01803247995518571 
-0.008872054368964651 -0.01096427622218864 0.004756173967956778 -0.00035285084507643 -0.009531617866858648 0.01231799593867186 
-0.01289667142736074 -0.01259739545253385 0.001992945520938832 -0.002828853224757046 -0.008012766086142202 0.02065513503231532 
0.01497176729440623 -0.01487220775569827 -0.01446330959544264 -0.009814291360002511 -0.004074073764665394 0.01964327224885921 
0.00426376146598924 0.009996076432307474 -0.01632180844178508 -0.002778132449482778 -0.0123505410160194 0.02255112790226103 
-0.009351075387849421 0.02883563850740227 -0.001346564071299368 0.0007023411300236362 -0.03376138499298036 0.009858581339226328 
-0.03203909563212975 0.03263224664121244 0.005425057297591821 -0.02143577855952811 -0.01500834884050079 0.0001638261892605098 
-0.02644602135490685 0.01355052202888032 -0.02066823466659422 -0.007194729893628363 0.02652011529318202 -0.002645589568330333 
-0.0242431407660322 -0.001642928373218035 -0.00956835678832242 -0.008648345538832623 0.05733168999641974 -0.02467856391810137 
-0.01120328202168609 0.0006671397341963259 0.005290962134852003 -0.01253479731493965 0.007904385521057239 -0.003672170300975823 
-0.007262468773201052 -0.007986151364998915 0.005416222386801234 -0.01557334713615378 -8.227674267980226e-05 0.001636644864750434 
0.001745276094421916 -0.0001224032865196424 0.007282850526206045 -0.02991016025995285 0.002537419413850996 -0.008538510025659644 
0.02806141258909643 0.006822247719960282 -0.001339097863240488 -0.01024395698396948 -0.00988362165425523 -0.01966932055596532 
-0.0371478465942104 0.004067896450245414 -0.02171260653293733 0.02675546477379736 0.02235638282762046 -0.01143467292129401 
-0.03819098780527803 -0.008686221587039147 -0.001283383213590453 0.02277997736940296 0.000431149838731796 -0.006109843760147993 
0.01182341240304242 -0.01248789522278553 -0.0327058256618044 0.03143771871396987 -0.02733699910853827 -0.001148544827927686 
0.002908099321946014 -0.01884536373520168 -0.002177839449766918 -0.01221678068105234 -0.01903926105673931 0.01029395275029445 
-0.004896080051425407 -0.007597798273348359 0.0001293637813438628 -0.003719274152871667 -0.006163300741031443 0.009133115559631864 
-0.008844936694868561 -0.004318132327947658 -0.005093240472434326 0.004704993369335784 -0.009255172297868468 0.01529937909887485 
0.01336793356151813 -0.008743102077420413 -0.01262699087204843 -0.007380014832028959 -0.007053357940099821 0.01792280258387603 
-0.008523043146775737 -0.02265439902444474 -0.02373744705923407 -0.02521487178543147 0.03516832981161384 0.0124799860834551 
0.01434728839730939 0.003025061294590505 -0.002089717761505147 0.005762623570439364 -0.02337785183787582 -0.001874218969469098 
0.005022076872874592 0.01828427064762822 0.01066786422403866 -0.02146068354685919 -0.02495827811990464 -0.006890126922156492 
0.004978999922865344 0.01402462218483275 -0.04223422126438626 0.05016007890145763 -0.01411633650932482 -0.01992965566467959 
-0.01110611699433034 0.02033799535464628 -0.02625259620050911 0.02374969389032087 -0.005786155877658819 -0.006701858014254738 
-0.01184115706061911 0.01138977194268355 0.0007662826556337355 -0.004386095071246053 0.001018941884965757 -0.0004340478557318719 
0.004667194038967682 0.01558717714056914 -0.001689601536402306 -0.01311624366755125 -0.004155073949135378 -0.001172261750995769 
0.009965583335633672 0.01632310867260641 0.01198780544573983 -0.04420576304779866 0.003243615958246884 -0.01117256220103409 
-0.0147251773356208 0.000717255063887898 -0.01107404867586871 -0.01418814602629648 0.01906693797272737 -0.001309846684017589 
-0.02315237291983939 -0.03048720490728483 -0.004892805687078946 0.02131981179067366 0.01842380167353182 0.007626666873158515 
-0.02857804621747162 -0.01481774643838973 -0.007493808935254417 0.02053694229108547 0.02171166997752107 -0.002841781695293046 
-0.01871587338501086 0.01012237867587928 -0.03448656206521438 0.02576375109143168 -0.01161028993115276 0.0006084978479123717 
-0.0180603025885526 0.013171396242357 -0.01834406766744148 0.01299305716712619 -0.009879290055876871 0.002491656996077008 
0.001711543458415467 -0.001144183248906485 -0.008007487757216785 0.009030851964507701 -0.003840045436961842 -0.001785628739640501 
-0.004642541080964657 -0.000491992836286748 -0.005298907428188023 -0.003090248816048018 -0.004399741681888898 0.01186433029446871 
-0.00456493739408973 -0.003438873912357441 0.002574803995131908 -0.02818131787851687 0.00365283430837247 0.004261598003776011 
0.009121490055092467 -0.02709292372869823 -0.02470766191207139 -0.02142731143094278 0.004346538618555069 0.0327903968482161 
0.02868827418025872 0.01062724645996276 0.008655038031015265 -0.02431439466428934 -0.007910092680841002 -0.02080921071754286 
0.02172941803710867 -0.01378259111799389 -0.01224662844757068 0.001443155871826317 -0.01017341195913873 -0.01208893509658625 
0.02749965112539452 -0.04905639110035966 -0.05767494549407838 0.09263387867596025 -0.005495118408405864 -0.03241993874546075 
0.02869066651233173 -0.02275658417970529 -0.04079482718406242 0.04723774028099411 -0.0002969138183712362 -0.02589098263699859 
0.01710847432573736 -0.002060209711048322 -0.01688816234577713 0.008642268840885724 -0.001538162097097267 -0.0125583853205249 
0.005984696883655416 -0.001136059022153 -0.007093329261590463 -0.001145839063732095 -0.006521369238229141 0.004799841973646229 
0.02815408134973021 0.002335598494852257 0.002774587001495714 -0.02394891148913982 0.0002911941628393108 -0.009182891964156937 
-0.03025602306072111 0.003368744545979684 -0.01548438115540765 -0.02710441336802744 0.00825904862184672 0.02780226398272079 
-0.0184081123035505 -0.009078136278413316 0.002289283106539363 -0.01690294872246746 0.04578789965564777 -0.01030237262405187 
0.009258667929700747 -0.02241599887959559 0.009984177933040373 0.001034330605461329 0.002855407920570405 -0.004526007402150648 
0.008830208067150734 0.01999088138207929 -0.05650828604836437 0.03777836505613039 -0.004572929657131006 -0.003800604100159222 
-0.006164590106132586 0.008299896843597866 -0.01135015874477301 0.004698277946680276 -0.002715031520245343 -0.005300101075697917 
-0.003949729392822665 0.003662582099050374 -0.01177337705131045 0.006757442552026238 -8.25995930367966e-05 0.003603615013033301 
-0.00456816332101283 -0.0003837552099923682 -0.01067018692680795 -0.0009594062407783278 -0.001151604535495683 0.01021535803757686 
-0.01807289110892107 0.01438484403307151 -0.02302392659768893 -0.007124626343708752 0.007872118817434336 0.01967571058455443 
-0.03473426764908361 -0.005929953443930239 -0.01463007243265773 -0.02638338975487302 0.00428019359420214 0.05717812247745171 
0.008708032035963485 0.008851860779052343 0.009676382455709575 -0.03051113821324154 -0.01594031520183195 -0.01351694267500383 
0.01704762995997959 -0.03643281478309755 -0.01121775670546461 0.03030306241166952 -0.02082762129483395 0.0004903549824930919 
0.03153655585290917 -0.02389673920961184 -0.0132341480422651 0.022454316253001 -0.01697053441542216 -0.00781613291412803 
0.03653287966460938 -0.01264343361439797 -0.002704200248842406 -0.007877940881352685 -0.01244455818239821 -0.008065178029881383 
0.001299468581742792 -0.009899980440287172 -0.000143514656885437 0.002252408122557062 -0.003281178270451969 0.002978443155455698 
0.01361303677268156 -0.006704572884562432 -0.001333329508793435 -0.003442369388004289 -0.003657657426937668 -0.00322862696811346 
-0.009074534139234517 -0.004085154049855735 -0.003782080058288404 -0.004102904449105574 0.01071295083018075 0.001896033805822313 
0.001309346430831809 -0.02093181860606173 -0.01872358120358129 -0.02159732468302156 0.02399969262794672 0.008519068561640168 
0.007782432548863797 0.003463600308464084 -0.01734844413407268 -0.01276665706179717 0.03903433332770094 -0.02103822970015175 
0.01316926926444903 6.633734866817765e-05 0.002442427230682225 0.01974498165713642 -0.01285711527920523 -0.011291130228264 
0.05274007792531944 -0.007391164443748753 -0.01945881189766466 0.01953465083010406 -0.0179071346127239 -0.03376911351745957 
0.03589407069911405 0.005424843538124434 0.009351903304552439 -0.01428870721551421 -0.01557470079878505 -0.02368431775101844 
0.01445362122034772 -0.0006316293797453213 -0.00288951060021902 -0.00519648985345235 -0.004366726505005204 -0.006325729492669951 
0.01132574086507429 -0.001624361865201319 -0.0009341646278545412 -0.00549240228451878 -0.006216341574626789 0.005827995159731279 
-0.02481758445826617 0.008907198209458575 -0.03625586131284397 0.007357429856036855 0.03973591571706803 0.02594592117082783 
-0.004503555060386324 -0.007550078321651477 -0.005848960150913371 -0.00991010205841834 -0.01658816502443679 0.03110303014643064 
-0.01323800516220525 0.01111639967268561 -0.01093718759207226 0.005620163027251474 0.00302471161800997 0.01647838729455095 
0.01124626910663139 0.00203558099934892 0.006950553064126188 -0.02691490982044898 0.004681860332242436 -0.0119600648527388 
0.02166890462828034 -0.002263540155581585 -0.00506477401369021 -0.00387665232272008 0.01001333219821673 -0.02081217886031072 
0.01044456703447764 0.001037251405852656 -0.004922313669365795 -0.02006325773675132 0.009644827693999778 -0.01123267621085148 
-0.001830110424337573 0.001674247556006183 -0.003013373912900201 -0.008545999477748081 0.01440155144304251 -0.002124256374886811 
-0.000248140533612456 0.0007108230992841494 -0.001571031048073161 -0.009052954729889699 0.003860841126716529 -0.001065539023274866 
-0.01065600628404325 0.01383351183994922 -0.002396899081444728 -0.003401317428980307 -0.0002023493725379077 0.00677430874612465 
-0.0293007480746944 0.00167453024053683 -0.01081923771183808 -0.01154003956927939 -0.002950948831487583 0.02873419110279936 
0.0025645508668626 -0.0007045617554584985 -0.02457912108213315 0.005562093370214263 0.03572911412433608 -0.0176214222454791 
0.01926779145937185 -0.004805323191616155 -0.0108971338663305 -0.003896317905115982 -0.004389306988094189 -0.01339794133381116 
0.02379730527897206 0.003636484405614008 -0.01788822551684538 -0.01070778681784961 -0.008712895284680517 -0.001285474111475849 
0.01693057549591151 -0.01410726548866916 -0.01013121637504746 -0.009578601349673468 -0.01424990416583181 0.002933076406170361 
0.009081044883835647 -0.001092873852681213 -0.003181848773049247 -0.0022869108837298 -0.007725574479108681 0.003756748502460879 
0.007994272589985042 -0.004878397669945318 -0.002328937959642935 -0.00441370382625437 -0.003217128941055115 0.004674295332962383 
-0.005378561075535301 0.008244044763825752 -0.002406530062417556 -0.006518249849793014 -0.001239876248278508 0.007552874595699441 
-0.01327069417084649 -0.01231820789745843 -0.008330741537474264 0.01231257475267824 0.003403216894956691 0.006414228103881416 
-0.01088085278345689 0.02973622430503312 -0.009987459163615688 0.008156368102825794 0.004943904131856786 -0.003586016916470381 
-0.01023816598236675 0.002128683409941346 -0.008779377025376293 0.001090693535235933 -0.002963004886896371 0.01440111055694663 
0.03563430261619557 -0.003673971132874793 -0.02993514186932052 -0.01345101536653222 -0.003064435154818935 0.01118977616788799 
-0.03174304083359905 -0.01268046059262358 -0.02797808756441094 -0.004648398089059072 0.04096869337500382 0.01797453463094287 
0.007866169901409007 -0.003715281625490487 -0.01390778601264671 -0.0007056905103051749 0.003438055502892778 0.005630002620886271 
0.006891719090158206 -0.007898977596559009 -0.01354011562216226 -0.001314705569808354 0.005827655503574134 0.008152360926075134 
0.001831752776889051 0.01031428158289802 -0.02168100182079979 0.02479685471604082 0.004414292698890788 -0.008819311785878279 
-0.01611719372298459 0.01050053145367301 -0.01178667383969081 0.01059328994969014 0.0149833142996592 -0.01006872190323211 
-0.003743072502001646 -0.008755809156967128 -0.01311381060702553 0.007466166200665703 0.02905708572913235 -0.006485131486512446 
-0.02256470259276031 -0.004808421096632268 -0.01127776337387963 0.007532898383747345 0.02039572281340887 0.00610544908147639 
-0.01236307250881531 -0.009911878425133549 -0.02872386339639775 0.007144812460343849 0.02747033639667592 0.01429449292321055 
-0.02658300323565254 -0.02802328047628616 -0.00140422798305841 0.02926631907299596 0.008812721833332557 0.01259940639370901 
0.002019815805722638 0.01121345712822765 0.006965485894959325 0.001332051775609302 -0.01670653980039044 -0.005972850408928556 
0.008367259830461819 -0.002552382772427016 0.004279807337353949 -0.003901332731819458 -0.005706749430882508 -0.0007395270057130888 
0.01431102927044843 0.006767015077360476 0.0009364814782552419 0.009559056741022391 -0.01222997120399107 -0.02434112796963014 
-0.007509656257629857 -0.009163470098598428 -0.01821411703925225 -0.001298624172834635 0.02230982620732481 0.002514640882089715 
0.009623032450872098 0.008279220249904184 -0.0001956491016535645 -0.0120855643638797 -0.01313629294240196 0.01385525845019748 
0.001687138314110079 -0.01961974694946639 -0.01071955995145438 0.001306843672 -0.01316929538470955 0.03998462725958941 
0.00234486449174512 -0.03945206617077709 -0.03645285215629671 0.04462055596523657 0.01211502268622502 0.02031053095668471 
0.02108762514658565 -0.03396348107845406 -0.01416789659369351 -0.005215420951774022 0.007423439547050439 0.01103006087251127 
0.007624321530926577 -0.01492959124159765 -0.009518288544358426 -0.004528510314609799 0.002972482114487009 0.00913666663634456 
-0.0006896382410687741 -0.007564341847915805 -0.01302350989360997 -0.01043583568485561 0.001351998910886629 0.02414007604383256 
0.006590940592054741 0.01626373781936796 -0.006119554846143997 -0.01209021433218851 -0.009405293371888116 0.007780610165505049 
-0.005031545066755626 0.01200220217394573 -0.004667161923861007 -0.007909366602921781 0.006415072569629566 -0.003027330894412561 
-0.008316146394912578 -0.01971862130573544 -0.02109352511338922 0.0003564467999175317 0.02014179864497853 0.01862739433544558 
-0.02503444879001988 -0.02907120330789473 -0.006553231501824938 -0.003985039954677153 0.02802476382586987 0.01320072380457539 
-0.00217956996958779 -0.005606258823355794 -0.01953567739242421 0.01076235959942373 0.001020185952851217 -0.02007725212554175 
0.03227328799044795 0.007350287478403027 -0.01159278395157942 -0.01919531841491576 0.009858155843623229 -0.02698257840669248 
0.001197476236380505 0.009813926219185384 -0.004963426693830379 -0.006304303983327653 0.006066775256479802 -0.006593468437874224 
0.003906363717931672 -0.003045209161179676 -0.008136394794870563 -0.00329262632205381 0.01469255316821635 -0.0003751719040853055 
-0.01101280597079186 0.01300610961628329 -0.01905895654946786 -0.0006053186451586362 0.02458672862665808 -0.003794319424843506 
-0.01225776659382679 -0.001644028224430663 -0.03647310657290009 -0.004648960314295346 0.0786855118353519 -0.03465857551265356 
-0.008384123047038484 -0.02261475391488507 -0.00711475791968628 0.02668430973819046 -0.01057082563672763 0.009611051155696501 
3.428395262821838e-05 -0.02923156538144298 0.00142234603707074 0.006025735580265422 -0.01246419128234166 0.02686620192659134 
0.0074386543463342 0.01190035629465497 -0.03381900846074666 0.0208255122753019 -0.02273457221815989 0.01123953614706074 
0.01988654126784133 -0.004960426211791744 0.002668485496310757 -0.01778789929719966 -0.01079103831137694 0.001774927831587419 
-5.706604092603207e-05 -0.01101800993340181 -0.001678242810654073 -0.002946866131651297 -0.01139847649457038 0.01865478143732861 
-0.003620604477639361 -0.01080061187498464 -0.009216246633728643 -0.001469889483088936 -0.004245200377566578 0.0222053362435728 
-0.002693230775457109 0.002715429340048675 -0.03954722993559616 0.0071989020630172 -0.01376151604038854 0.03036795085294954 
0.003382407470996736 -0.001535393496524255 -0.01877379600872935 -0.01075017838780727 -0.01148374815869064 0.02121812716963316 
-0.001271625046557831 -0.05416590802965781 -0.00377415671857669 -0.008176089354809018 -0.00265379269897279 0.03820078718666787 
-0.000856887763518887 -0.05186444354822565 -5.100411351254724e-05 -0.009813354862687897 0.009986180395403247 0.0138741920271415 
0.03561869374365022 0.002132098045203689 -0.03418084912089802 0.02927595931294575 -0.02013166075894711 -0.03727964958001324 
0.02957030481710412 -0.003121684649308627 0.0008336264084549171 0.006059261652617294 -0.006861478703125164 -0.03619667349798148 
-0.0001444263618990473 0.003590624357331656 -0.003217680858559446 0.003293773066909405 0.004643118627606994 -0.00919910873094139 
-0.006186775125221654 -0.002993025118537011 -0.00732860851510716 -0.003242826970899173 0.01604691474980384 -0.00285523361336663 
0.00371425173192511 0.0111009277143294 -0.03517901407428475 -0.003759597551754104 0.04547571196871625 -0.02419062614645874 
0.02045692202210308 -0.01336508480835594 -0.02582675991933004 0.01009943776336302 0.03600531976400247 -0.03867163176637687 
-0.06200849302392689 0.01824239085694537 -0.006287622657641617 -0.006453446841281481 0.01325419223572434 0.004873449716778384 
-0.04924857051623437 0.007824981640587972 0.03213800876242844 -0.04480863550698404 0.01462986799013822 -0.00441500235670846 
0.01308685149937082 0.01475585361117816 -0.02201514416703998 0.01006088333655917 0.0126358953839186 -0.03251940902367145 
-0.009490372379423078 0.0119105952599911 -0.004400720019833144 -0.006053852962657557 0.02770387112370343 -0.02443705953534729 
-0.01840250437467347 0.01457991203961962 -0.007468680163950181 -0.006130381721074725 0.009765049156330934 0.002784609371795393 
0.003533732404225648 0.008115980172789606 -0.007060990347206247 -0.005587156259106935 -0.01324161623428361 0.007020215653607027 
0.01200641873101041 0.007455263616073613 -0.02835996677437644 -0.005076027892007785 -0.007342663703715413 0.01092703009834172 
0.02431334281758823 0.007614102959580686 -0.03021463130933717 0.0009259613815749886 -0.02368788475744775 0.01705124801010784 
-0.04818771378602905 -0.004999802556058087 0.007901393573137018 0.003243956964774569 -0.008098100453849996 0.0331707827995036 
-0.04050807664492234 -0.01188772089526997 0.01028905395869849 -0.005827108367106636 -0.01296097240845635 0.03437253262567805 
0.004268561020218825 -0.002124047550700111 -0.04764255499760497 0.03316133403901735 -0.02698487789527675 0.008482348899143762 
0.01179209553857325 -0.02354723923548045 -0.008325055234332773 0.009943164947091718 -0.01224321932093862 -0.005183087685064137 
-0.007531679945875509 -0.002369717011174598 0.0006567569324265518 0.003477202702744184 -0.005752127523360451 -6.97942329342277e-05 
-0.00430623478490761 -0.001374006807092577 -0.006816702091966766 0.004855436750849797 0.00279369330769426 -0.003204054006025598 
0.01370878520504749 -0.007867685698773908 -0.01279552211701008 -0.0002687525525052615 0.01316557901703374 -0.006362875013001332 
0.006228923695247814 -0.03789472670744692 -0.01985328487582567 -0.0001459907066548917 0.0325004071792314 -0.0088148766126574 
0.0033821985569718 0.0243281322481308 0.02213602068546398 -0.02232387473361975 -0.01406102392600009 -0.02309631871670946 
-0.03093983322970499 0.03326681522113142 0.01614429146059994 -0.0301204486483642 -0.002310569240247031 -0.005439711941625701 
-0.01872799655144302 0.007426829450831768 -0.04306393375842141 0.05386833888715602 -0.01709056840216274 0.005357992195069691 
0.009765354713124456 -0.005294581090296914 -0.02981793202759262 0.0305501994452341 -0.01685172567948601 0.000233046724145646 
0.009820843263999198 -0.0118574438096255 0.005082061783410505 -0.0117746846497435 -0.004589262420716197 -0.0004940397806267621 
0.008953873504307703 -0.008170554139415207 -0.001450159091136038 -0.009851796683589186 -0.004387845311165297 0.004693680716186121 
0.01845148238565633 0.000978272557852822 -0.01005223480214355 -0.0251995133606881 -0.009360696856003612 2.190114724807342e-05 
0.003273166864935314 0.009365170702594161 -0.02321645935278045 -0.01958065177106878 -0.01987729260072247 0.0207655510970924 
-0.03214623466739417 0.003333902826228487 0.002492065394821457 -0.005632983452300849 0.04259514135770372 -0.009725269434063013 
-0.04454793042308776 0.007239090005956956 3.218051282737794e-05 0.01505612584782574 0.009975274635070235 0.00249915388413362 
-0.01019852388856633 0.005697594643965909 -0.03168464782788042 0.03752657440262139 -0.01709470843357229 0.003806922398677234 
-0.0008714061801857029 0.001444465707999372 -0.001456516860028808 0.01365812444047057 -0.01001634856536382 -0.01752276115037948 
-0.002803433048363644 -0.006025929284660225 0.000213665996425081 0.007861178261155751 -0.003961289861755216 -0.004155800265776689 
-0.006258000226097768 -0.008769428981875896 -0.004041169467110205 0.01130081175880614 -0.001542768159400205 0.001140263603937166 
0.02553978690209187 -0.02500722730601503 -0.008325052606803527 0.006714824139295 0.006877880214960646 -0.006505643557897959 
0.009752113791096605 -0.03098668884832846 -0.006239560030828605 -0.01685110709222401 0.03725998706413269 -0.0009182932505122081 
0.02121051912173062 0.01651742327046834 0.02255805138759417 -0.03551109189155439 -0.01781309213493553 -0.0206053731942543 
0.01639101207629831 0.001997640304847706 -0.02187324045962499 0.01278514934279746 -0.006506039710480073 -0.006616250256067013 
0.03518018847735787 -0.04404621380638929 -0.05253354544136194 0.08158409857400009 -0.01178093765899837 -0.03628010176993891 
0.03450315441715249 -0.03727220088689166 -0.0340311632509398 0.05093788352662805 -0.005388648196968603 -0.02612546890718234 
0.01262148747351172 -0.00660161702890713 -0.004272605151879989 0.001061365360916753 0.0027502311507432 -0.0139342909252526 
0.01715656261699573 -0.01002132823143612 -0.009135490327900555 -0.002999265419959245 0.006217599476912757 -0.007020534253364078 
0.002491949639980466 -0.00919529010175184 -0.009858400831367544 -0.02690329001470169 0.006777616761553844 0.02217214796528462 
-0.03047156680704316 0.004666494441525035 -0.01393853704548403 -0.01571060756934814 -0.02046774106142711 0.03897435502643246 
-0.01114945637987118 0.00593017841003183 -0.009167866487164361 -0.001930014949810006 0.01341569814057758 0.003397054075046085 
0.006260939137979362 0.008694693781075988 -0.02402658218986269 0.01369600407470345 -0.01140179727020957 -0.002116257631827482 
0.01440570378942706 0.01956914836136565 -0.03928501061451229 0.01629358592200008 -0.002020089296023131 -0.01210197265668455 
0.01430235868915972 -0.001459860348967793 -0.01185059897170431 0.01229945902595209 0.0002397612656673278 -0.01409905535600003 
-0.001476903938574495 -0.002738368978862973 -0.0003443147850344987 0.0002964744664978378 -0.002557029120203022 0.002732716988786134 
-0.004121933898307202 -0.008758044901270447 0.004340923542662994 -0.003474552412178551 -0.004315732344339182 0.01035287491597762 
-0.02626121020788945 -0.003394217939391305 0.005952509129522013 -0.01860794711484334 0.03077400257253237 -0.0007048517022123359 
-0.009794625197583142 -0.0175462236941036 -0.003632231826765755 -0.02754866140774494 0.01957900621402807 0.01442324945717273 
0.02138651221374865 -0.001001958628444159 0.002710054307595635 0.003153473875855443 -0.02014360400563269 -0.01259785157122303 
0.02395051067764327 -0.004809315973154892 0.01312036049738141 -0.009452576979313836 -0.01609588364464118 -0.003259401250714435 
0.03487730998500169 -0.02220982076403831 -0.004597603664100414 0.006817582262812425 -0.0209692795627214 -0.005279522140386956 
0.01275464715494974 -0.009158150587040054 -0.01270641942770889 0.009628364114889772 -0.01420623679761062 -0.0002238443818740913 
-0.006385133059180305 -0.01344127397770854 -0.01005883251161493 0.01622422639637119 -0.003772878963786665 0.007720214548257396 
-0.01035434740297106 -0.008271274904219176 -0.003491068595201753 0.007144064795596399 -0.0002777775232496611 0.007899987241658865 
-0.0138840277380943 -0.01169796224522052 -0.01988683474847112 -0.01002529505451118 0.004997406719982398 0.04024158049241094 
-0.02088667870551495 0.003436045074554132 -0.01258666087866339 -0.02278365792785716 0.003901177339421412 0.03588676275713169 
0.01609402565411469 -0.001003833856836273 -0.01758016285900323 -0.009678058626890652 0.0113334504462827 0.002847475638556408 
0.03469098774510463 0.004456943929815742 -0.005395226145366932 -0.01480360621653567 -0.002409760859367999 -0.01898588711848895 
0.05194618698014087 -0.01205077747581513 -0.01663490376879341 0.01765929018493273 -0.01830427684326826 -0.02064428981020939 
0.01626008152344188 0.0003876106318498331 -0.001895481148370319 0.007680731344274383 -0.008582289732627221 -0.01846955486295097 
0.0001489649163237311 0.007706661837846889 -0.007159477218347557 0.004506456143891707 -0.002291369572627323 0.0005186807777126846 
-0.0006222047691271582 -0.0003252870223697506 -0.002563890753471176 -3.982959137175352e-05 0.0005410994822843682 0.004144696267028843 
-0.02939372238193362 0.001040595459695381 -0.02928069947912942 0.002428376013819712 0.05073794514988379 0.003687809121217102 
-0.01620257383077641 -0.01013755424422652 -0.005013070984229056 -0.009826970745118816 -0.005177467411950469 0.02654683684136804 
-0.02740842845301005 0.002112561900140632 -0.0009296622941653201 0.01287308657263928 -0.01098288767884896 0.02149507442652762 
-0.0137666441145559 0.02560464840862956 -0.00365044107112971 -0.03497676237163913 0.001621048770069458 0.01219455988729006 
0.004047215118614916 0.008006592531828694 0.01365029382393458 -0.01642984545796413 -0.0007563134786104681 -0.00884488588263305 
0.02493799908304451 -0.002793704062870248 -0.006697991846952581 -0.02662703559476782 0.01024791844397755 -0.02307381336182519 
0.003750203512576023 0.0009018729250968337 -0.003286438487141245 -0.009754791293336269 0.003633424971729358 2.651806067484162e-05 
1.11133953923348e-05 0.004448596356652357 -0.001381833082328899 -0.01319948593265654 0.0008111932198274618 0.0003622613156522659 
0.02144289195273362 0.002294237826553606 0.006136371001433701 -0.01059094488053373 -0.008882700232134205 0.006111100744401153 
-0.01726303517310616 -0.01272791999316582 -0.008841509163045377 -0.01627900685198988 -0.0008313316026290241 0.0391929349048958 
0.003821627880405726 -0.002708063654231123 0.008804179768437967 -0.00211090605385589 -0.0003054243181707136 -0.0113335318425037 
0.01666802916030866 -0.004396354983513532 -0.01294736251064854 -0.009898175468977076 -0.002986030352121611 -0.0006724079798749282 
0.007958705711699479 -0.009209916170176705 -0.01252536642196815 0.001777313174062774 -0.001913027866266221 0.007864072549440229 
0.0157549462267091 -0.01229110206138328 -0.004036063430237553 -0.009449956016074597 -0.0120021426126753 0.002963652777656386 
-0.001938522596036145 -0.005492373583832195 -0.002700320818222177 0.004405020988236423 -0.007337901292332885 0.005086505127864802 
-0.004029750687007237 -0.001870586762415239 -0.003225630453315791 0.001885349937901827 -0.004066187904582914 0.007764689226099865 
-0.007732459215819617 0.003223114833415074 -0.03012038058227515 -0.005846241017770073 0.04895243950366893 -0.01266364530119504 
-0.01389496978929093 -0.007915567393267455 -0.004809955560502556 0.004012491259303766 -0.006112849703210503 0.01664413369285642 
-0.03214819538918127 0.01499149780646476 -0.008018119428155866 0.02232662712110154 -0.008017635503482353 0.003906560488432054 
-0.03252686786759274 0.007450993453357403 -0.001974722731166367 0.006209971296779624 -0.01017215636241187 0.01594763318716456 
0.009673170544050643 0.005097289112844332 -0.03145894134051042 -0.0003499885289005075 -0.01675248514915581 0.007084285798812017 
-0.007765030530490556 -0.005314534864739463 -0.01271095297073004 -0.00252310011249615 0.01524825593851764 -0.002282752626566391 
0.008818506876415742 -0.002736080291539403 -0.004862477418268576 0.0002594566818722618 -0.003840667959828189 -0.001278618862868526 
-0.004813068549398006 0.004410869391357096 -0.001345722325883825 0.001851382220726781 -0.003407109558084833 0.001880153528117463 
-0.001814164109082653 0.01748137247939999 -0.004062139652598081 0.0008784080483846366 -0.007550969171116893 -0.002773320294350654 
-0.01809678930229388 -0.00573458361225026 0.009208474174898788 0.008337323376321201 -0.006449370091445737 0.001742223749241509 
-0.03635966810437965 -0.01253671884520145 0.004676085902710639 -0.001612894953604373 0.0239603810221518 0.00804634875926561 
-0.01105491260235134 -0.02269766859806654 -0.001190523947852428 0.01085755157883381 -0.002803144244898536 0.008473447117622088 
-0.001655668077223801 -0.02924601894373011 -0.03034717941586302 0.04524816317199448 0.00774831588611746 -0.007311457575072935 
-0.01007038215276734 0.01327699163712317 -0.0064296174296726 0.002337483991889401 -0.01767874268980415 0.003260165694870799 
0.0009653308863726614 -0.01459921967579873 -0.005164320673294413 0.007439165008707701 -0.002189023012423395 0.00483218628651735 
-0.004122086425038987 -0.007958577264346279 -0.002193546414404517 0.002296476803929916 -0.004976974776831504 0.009644897163521515 
0.002422207012434125 -0.009839258597407578 -0.005954390642112429 0.01536736818552295 -0.0002572657658199814 0.000462816394170089 
-0.009065433196933722 0.005005538348797338 -0.01275731102358767 -0.005673530541896003 0.007410937069279216 0.004960287381216257 
-0.03325003994821051 -0.02066558682501953 -0.006111152453548959 0.03302532923633074 -0.02888229012696373 0.03319191220654863 
-0.01651495625573643 -0.03585095941090286 0.008377329858629878 0.00177790882716778 -0.02103196869542874 0.04087717042105156 
0.02098146519218694 -0.02263735540533945 -0.03523318073883302 0.01571273246464044 0.01053434257431239 0.008996627823364684 
0.004358884708656494 -0.01312963955117715 -0.02250917902902413 0.0009455888170239471 0.04409616363084444 -0.009165634698304186 
-0.00100439654707176 -0.004410649049933349 -0.01263474577052523 0.005544368879453766 0.01627113491912289 -0.004037623295422135 
0.01822005074341639 -0.001862450509981635 -0.01040509701745721 -0.001536300210549115 0.009485906110780609 -0.01096173144514767 
0.005603346883896763 0.03101559000592764 -0.02567560392621909 -0.007327023782351987 0.01155322511560823 -0.01291739036712978 
-0.009084112154344331 0.01419531504015522 -0.002962786622436785 -0.0007428471780336075 0.006174754772388623 -0.01511834622967883 
-0.01928565852635034 -0.02930993709599489 -0.001928211061959693 0.00925545441342652 -0.01357023472713602 0.02822703496187056 
-0.008323071207268084 -0.03057381056745424 0.01370461556726737 -0.01475599915491859 -0.001337935819053935 0.004248675630106319 
-0.009828380981816138 0.008310421998008325 -0.03092911987780714 -0.00630620667502584 0.01200906816527761 0.0008078890182078656 
0.0003857155842864352 -0.01486694644937012 -0.009025885220711488 -0.01342058107711626 0.0033515119138389 0.008762154156086707 
0.004029132521585497 0.001195047013349878 -0.007920779688473897 -0.0002104533719355744 -0.004804497015985704 -0.005657113301037408 
0.01073493051686386 -0.005280275185258607 -0.007281151162672118 -0.006471478882231887 -0.0001561931641836294 0.001655276030508911 
0.002739515829334448 0.01744115118169172 -0.01891347275418855 -0.003056318107753415 0.003552082957749135 -0.01212560291977452 
-0.01105231092388977 0.01531826188347415 -0.02415197374849723 -0.02296754790410814 0.043110057991509 -0.007730351298969628 
-0.002176699900243637 -0.01573639518114614 0.01372263069045302 0.005016030657072386 -0.01799136320025579 -0.001766973211918562 
0.01155336477253783 -0.03260997212222553 0.0255061935564777 -0.01940431545371363 -0.02176029961053522 -0.001941574555872066 
0.0128029038465124 -0.01137170536691746 0.001906749522809237 0.01028832600043736 -0.02458904546980925 0.003700757283540906 
0.01808736388760009 -0.008196568348905449 -0.02257174441738394 -0.001699934685820521 0.005071513069445731 -0.003303975225656675 
0.008682641327676904 -0.002121342418790053 -0.01109524370852561 -0.004116253481401057 -0.003319081169513277 0.003652759407433526 
-0.004296794422105651 -0.002269337326107203 -0.01248370774348457 -0.004030442569542787 -0.006935854755586779 0.02103751027339023 
-0.01772588374179853 0.0218690626418417 -0.02661680826891411 -0.009553331716141655 -0.008074074689763773 0.01602969297070699 
-0.03246322022251569 0.03696740175087797 -0.02960867279733612 -0.02458735272816144 -0.009334403370794699 0.02935170899586073 
-0.02029715817855048 -0.01565845403414453 -0.001299383876019709 -0.01519576180781713 0.03589463004533824 0.004164221109176405 
0.01031487479941865 -0.01659795730431853 0.01129277101274966 -0.01356203126297314 0.009097538382284075 -0.006410640531287501 
0.005094409053891945 -0.01619550301032401 -0.02273731040718015 0.03464672578591668 -0.01068260432103768 -0.02448931514073123 
0.01713962167903027 -0.003887058099016408 -0.01691429171824295 0.003428098275474268 0.001361379321061901 -0.005300555964512627 
-0.002884772097721117 0.009009448067253035 -0.008629035153925988 0.002253690126358415 0.003208368301192525 -0.002474848901231445 
0.001331650933784998 0.008760676547009077 -0.006313421022188583 -0.003746165790239391 0.0003625938336024931 -0.001074277442544882 
-0.02204941913248115 0.01327609936114457 -0.03074237767087182 -0.004401618588447255 0.03980523361832364 -0.01014196439545766 
0.0140911622095493 -0.0172818078799608 -0.0290677922670515 0.008878132627839637 0.01455293228595964 -0.007466619787659263 
0.001435765797634005 -0.002494429633123338 0.008100532469653926 -0.023618627116648 -0.002599389005544441 -0.008694309154838382 
-0.006479038740290701 -0.0005354309132754251 0.003035414814458892 -0.03072115544326601 0.002554587698966447 0.0002726570365180617 
0.001125268505213157 0.02766054159845864 -0.04614665562461479 0.02024494621990433 0.01109744315203988 -0.01297973210204604 
-0.005013312021088979 0.01411151727823115 0.001412254522762896 -0.006821343563540457 0.001701435777549381 -0.008978174140696734 
-0.01437064614138794 -0.001058922861567776 0.00321140414816639 -0.00161328192717705 0.003084618153720891 0.007916228636609216 
-0.003291126460156675 -0.002389742618609813 -0.008142950831211275 -0.003360145380727368 0.01201494038360494 -0.0001350350213181497 
0.003581267324478526 0.03243501381947028 -0.03168494299793032 -0.01727124762940059 0.009654768619196284 -0.01062295898546918 
0.004216064341628625 0.03040918111490105 -0.04400415078676624 -0.01526833791364955 -0.01325129605186277 0.02107445700159126 
-0.05191097718353257 0.01490094827712579 -0.01338776523646144 -0.009442990701741415 0.009716875600224951 0.04330577100886608 
-0.03909194168813911 0.006202369558440626 -0.008864182386924711 0.007019501895468191 0.00485313024259516 0.02058463131055162 
-0.01896683365802273 -0.00670859898843909 -0.05231235108997053 0.06406122863374357 -0.0198389643794108 -0.008792609411212148 
-0.001821348177456527 -0.01232701966281774 -0.003651204132093014 0.006404662455260272 -0.01714898561217107 -0.01229975635987096 
0.001134435008992185 0.005300454937492295 -0.004478179589159056 0.0007634733637957491 -0.007127531517258009 -0.001100081673741588 
0.007893949122701929 0.001159189607967241 -0.007364272232086479 0.002890238405775401 0.0008362909442547763 -0.004120145233678367 
0.02247209605253632 0.0009716931769854988 -0.02476924233044813 0.0048936767995864 0.01721028829929197 -0.01565259297957943 
0.04498882621501616 -0.01723906666793397 -0.02329985047332079 -0.02285174452960766 0.02044445948203513 -0.02784592493146291 
0.01144739345810376 0.01683731519116051 0.01047887071503815 -0.02304580490187554 -0.01012697960392768 -0.01735301981086861 
-0.002109548043373343 0.007671633475213501 -0.00575398031640352 -0.003211240301041646 -0.02771712206138614 -0.0002889584269501916 
0.0006567794072588271 0.00833658288268338 -0.03836198626006118 0.05000913634446668 -0.02755846072295608 -0.003481190874980027 
-0.004868521441920622 0.002209706896819881 -0.01093167392376937 0.01615565108339504 -0.01119254711621593 0.001312963041429991 
-0.007674604568824256 0.002000573597437096 0.006241496961256728 -0.004286594550339005 -0.0006442053540441193 0.003612170429905164 
0.002202830713769512 -0.001635389960897763 0.007029844567583902 -0.001073493597341459 -0.006013589247385597 0.0003203575979008005 
-0.01669256036953284 0.05314089147375043 -0.02273914611044978 -0.03104015334313145 -0.003352848736131081 0.009038547244909914 
0.004769454222961794 0.03265357604662852 -0.04656351865614267 -0.008900823832870348 0.008038056134950672 0.01349808535629408 
-0.003731863548784704 -0.001370459786176827 -0.01081342705725872 -0.006442303647194092 0.0199608120582694 0.0004437142096622439 
-0.002176515153650095 -0.01346811233183674 -0.01772864300675587 0.01797880953794398 -0.0009066879347547613 0.006007690015932575 
-0.01510085335615636 0.003582366582884651 -0.02154971759643108 0.02396316224793486 -0.01058840477108002 -0.00608384998133758 
-0.01832958266773767 -0.01278071343998713 -0.004481291605150576 0.01428495402770007 -0.005064575894712654 -0.003947999900326511 
0.0003199203668544665 -0.01126770338072133 0.003276881787846196 0.003883773637013319 -0.002726382436673904 -0.006265410437968082 
0.004899217586938918 -0.01098421037935404 -0.003333413912144098 0.002852182804196023 -0.0007854958361047284 -0.002058806956503714 
0.01806979546057555 -0.02322611920065099 -0.02835132841147977 0.002413679576831871 0.00962530847838637 -0.01078134675692374 
0.01238546841068222 -0.02185746790790801 -0.01684050936826886 -0.01251747639625967 0.008660263710001264 0.01257387386854663 
-0.009396426454916149 0.03666969886387864 0.005479657382544838 -0.01801614059912659 -0.01256809928200978 -0.01537536533593037 
0.01218860459870198 -0.01630545602508135 0.005538387063993079 0.008770633846386809 -0.01410081548409918 -0.0110069386515246 
0.0368649099096323 -0.03177169768288944 -0.0135404131065629 0.02534624489957515 -0.0155156768732563 -0.02536396402888148 
0.004027930235791163 -0.02937699929783791 -0.01306705111507918 0.02141274232986442 0.009564354484420192 -0.01518230484630593 
0.0005366510359799518 -0.008064765655958974 0.009018463837115786 -0.007805101244108756 -0.003771324615094782 -0.002532008156207798 
0.008974754159185784 -0.00297486430555496 -0.0009409170028209166 -0.007852269876242064 -0.006386242197044333 0.00757664581831978 
0.002053159305820421 0.004319322976293036 0.0008392868027298732 -0.03712947938514342 -0.02635542187694816 0.01642850951436801 
-7.854912104371502e-05 0.03134417242161065 -0.0258191693755855 -0.01714333616716073 -0.01465317896343388 0.01361602591260954 
0.003066823791036836 0.007827483279607018 -0.03349705415745575 0.01110830089181298 0.02859517773591308 -0.006130876391381628 
0.02753169134407751 0.001017840256512007 -0.01664039468279117 0.0134541440339372 -0.01833952646034294 -0.006959835025375267 
0.02024350631524899 -0.01695953470482047 -0.02188368393809379 0.02615126192822196 -0.004881944991145819 -0.001061306155629815 
0.004732745410102813 -0.01927101181196847 0.005814332050804203 0.004815209976267678 -0.0009663385029842943 -0.005722962223804548 
-0.008432091017221159 -0.003398115939453858 0.007197488827735544 -0.004885736461424999 0.0008102391049801552 0.0001420767978058989 
-0.01087497305888274 -0.0001175967251122755 0.002324333282400789 0.001767379254438005 -0.001089999834390037 0.002797130359984548 
-0.01723987579829717 0.01484839846537994 -0.02291233488085892 -0.0005175166693812243 0.01821913862445162 -0.01055044281797186 
-0.0002109974802554531 -0.01600099657479318 -0.000141728587755928 -0.01757101185959904 0.007668250827112248 0.01448576195557661 
0.00982355357630056 0.01926582575419913 -0.001595292173182079 -0.006961498706874982 -0.02471453388332803 -0.003874703253045622 
0.008850902013363774 -0.00589293561987855 0.01170018855576962 0.003181666078326643 -0.01941642969612085 0.001714635278038569 
0.02806268718602623 -0.02495225099488449 -0.01015356899912674 0.0177071506672973 -0.01508235077358884 0.007918155369215283 
0.009390414710102397 -0.0151662746383108 -0.0205441400631771 0.02309787794556434 -0.008315025806445914 0.004219575853373831 
0.004704911073257307 -0.01671299880575579 -0.008200869596627091 0.01581367618185397 -0.00627639531901764 0.005629117896202686 
-0.0003157462372479543 -0.01067735338100112 -0.005761950760028374 0.001757256977259387 -0.001685595798055371 0.009621867567387699 
0.008863825858662962 -0.03149887650187898 0.001809067223584271 -0.02435977616774019 -0.02147464420224561 0.02099874924815456 
0.007508669611709633 0.00678074025885503 -0.006469300061611624 -0.03520006898472858 -0.008133514557711221 0.01661976614181036 
0.02780177224812148 0.0128176776165092 -0.02848197435632302 -0.01295359128102045 0.03162496924340137 -0.02703522419087275 
0.04057080901186952 -0.008897453749394747 -0.008912080679883078 -0.01114448886072841 0.001901205592043393 -0.01223438120855068 
0.04584379969195209 -0.01944416063901074 -0.01043251238093005 0.008896942120111016 -0.005258160958452893 -0.01326720435725304 
0.005286608853423675 -0.002067302724889154 0.003009547948783514 0.002315635190068146 0.002365654657431948 -0.01486507063118956 
0.005802180921632695 -0.004687199327010059 0.001496502783761951 -0.002053383842149959 -0.003753724804216733 0.002776128643270422 
0.004365776064974221 -0.006765375157175615 0.003386752810974379 -0.005999339156630775 -0.003287884289001622 0.00485721268673888 
0.007588350983257696 0.003579896387746204 -0.004883509457626552 -0.009786623507608285 0.01184502846304716 -0.02135494690916709 
0.005057851251453787 -0.008486700792130961 0.0005905589783053308 -0.01004720773452924 0.002278082638888804 0.001566587031695933 
-0.01487754397620958 0.009607594858129649 -0.01609283280806323 0.004775826649576099 0.02076951756790975 -0.001329180432848539 
0.006845872730122725 0.003867420773422415 -0.007404563612981781 -0.02606394656175604 0.009627861274618022 0.00816873369802334 
0.02497812030242732 0.003124637216835864 0.004466097654765569 -0.02259718523766325 0.003048162007333682 -0.01826068913752469 
-0.005249926130028343 -0.01400443875211241 -0.01316101559959521 -0.01825494702196653 0.04116509991887293 0.002422265130428583 
-0.007217604857053642 -0.008923441317952377 -0.006432859563108433 0.004043207029269415 0.009820332651918678 0.005965563044562867 
-0.009736216914865158 -0.008488638313395103 -0.004534789252359337 -0.001401483532418987 0.002522070690335181 0.01086748185496745 
-0.003142264495679998 -0.01106704087836805 -0.0054754756990048 0.008273885533372645 -0.005051823875745967 0.01006618879973189 
0.006972220291247859 -0.02786999252996667 -0.0006613756239353673 -0.01750981928912753 -0.001899578451623667 0.01402576541997976 
0.02800654349181376 -0.001202696071892746 -0.01471519338700963 -0.01204062087092299 -0.008568290009220637 -0.003808701674775569 
0.01197658852871823 -0.006168279284099434 -0.01063309281048881 -0.01681545026217778 -0.004191863974212934 0.01122169119792394 
0.001778460755672351 0.002702106663438359 -0.01609883690568632 -0.0008506844126800946 -0.00797823940116844 0.00714816688753042 
-0.01853398154399477 0.003263562968597796 -0.007505974677228162 0.003725512560907686 -0.008640661603906714 0.01386381606453807 
-0.002656950559615669 -0.002149128208858092 -0.007228603433368752 0.004451813404049746 -0.003912514756862211 0.004026065648892067 
0.004498611914663126 0.0024527221328905 0.0006241327178070017 -0.002453607720690614 -0.004581661816654062 -0.00383069479495565 
0.02777277944156252 -0.001246702206004486 -0.007832015498760486 0.01112067075196436 -0.01408579162405665 -0.02168294409477094 
-0.006534486253298496 0.0007225379396499483 0.004846047797268539 0.004391476494073624 -0.00251398593078367 -0.004245012555982039 
-0.03292920222431707 -0.01806897805273628 0.01568410948403731 0.02555974842457914 -0.005656080008559727 0.008241567182264549 
-0.02657477131731963 0.00422350892603224 0.0130135483211959 -0.01282495108996239 -0.0002983338742569242 0.01270287516703535 
-0.04692781498134516 -0.0004674888195497729 -0.01225385843227784 0.003575636604819145 0.01986490355318836 0.02355099284309527 
-0.007091859179547026 0.008456905394444856 -0.01070523479730096 0.0008603376779460173 -0.003840201433075098 0.003024774547841402 
-0.003139217751843833 0.0004556484653278882 -0.004790301563241057 -0.003303242804556017 0.00272362175199604 0.002597529771737063 
-0.002447896618012515 0.006004647071774267 -0.002455816486110457 -0.0002842260554041619 -0.008619724602262051 0.003785828420368506 
-0.006062832232293857 0.01574650223043561 -0.00826219972156815 0.0006014132553435711 -0.004406402960329241 0.0008064120773185239 
-0.007960620147696334 0.005721992039542165 -0.002184691856049256 -0.002599232958179862 -0.005810234451110987 0.007477262868564211 
-0.0337045363850517 -0.0133599786142609 0.01468999442508602 0.009596626667717642 -0.0111237434112274 0.02064539981511774 
-0.0143563079936003 -0.01414961448392287 0.03339027972995873 -0.03766899023008492 -0.01110137719086148 0.006881349007706076 
-0.0003088945024290898 0.01557361830220844 -0.0003646227455415187 0.02418631896405752 -0.02557045343235509 -0.03560962379084481 
0.003171948538835636 -0.01216116987160141 -0.002524313953309134 -0.01060005483737524 -0.01044570463066907 0.004839858550507897 
-0.00427773573469509 -0.003405342580768246 0.0006396118464828802 -0.0004759215234051233 -0.006930491266534278 0.007938498106738313 
